FANN_FLO_2.1
num_layers=3
learning_rate=0.700000
connection_rate=1.000000
network_type=0
learning_momentum=0.000000
training_algorithm=2
train_error_function=1
train_stop_function=0
cascade_output_change_fraction=0.010000
quickprop_decay=-0.000100
quickprop_mu=1.750000
rprop_increase_factor=1.200000
rprop_decrease_factor=0.500000
rprop_delta_min=0.000000
rprop_delta_max=50.000000
rprop_delta_zero=0.100000
cascade_output_stagnation_epochs=12
cascade_candidate_change_fraction=0.010000
cascade_candidate_stagnation_epochs=12
cascade_max_out_epochs=150
cascade_min_out_epochs=50
cascade_max_cand_epochs=150
cascade_min_cand_epochs=50
cascade_num_candidate_groups=2
bit_fail_limit=3.49999994039535522461e-01
cascade_candidate_limit=1.00000000000000000000e+03
cascade_weight_multiplier=4.00000005960464477539e-01
cascade_activation_functions_count=10
cascade_activation_functions=3 5 7 8 10 11 14 15 16 17 
cascade_activation_steepnesses_count=4
cascade_activation_steepnesses=2.50000000000000000000e-01 5.00000000000000000000e-01 7.50000000000000000000e-01 1.00000000000000000000e+00 
layer_sizes=785 31 11 
scale_included=0
neurons (num_inputs, activation_function, activation_steepness)=(0, 0, 0.00000000000000000000e+00) (0, 0, 0.00000000000000000000e+00) (0, 0, 0.00000000000000000000e+00) (0, 0, 0.00000000000000000000e+00) (0, 0, 0.00000000000000000000e+00) (0, 0, 0.00000000000000000000e+00) (0, 0, 0.00000000000000000000e+00) (0, 0, 0.00000000000000000000e+00) (0, 0, 0.00000000000000000000e+00) (0, 0, 0.00000000000000000000e+00) (0, 0, 0.00000000000000000000e+00) (0, 0, 0.00000000000000000000e+00) (0, 0, 0.00000000000000000000e+00) (0, 0, 0.00000000000000000000e+00) (0, 0, 0.00000000000000000000e+00) (0, 0, 0.00000000000000000000e+00) (0, 0, 0.00000000000000000000e+00) (0, 0, 0.00000000000000000000e+00) (0, 0, 0.00000000000000000000e+00) (0, 0, 0.00000000000000000000e+00) (0, 0, 0.00000000000000000000e+00) (0, 0, 0.00000000000000000000e+00) (0, 0, 0.00000000000000000000e+00) (0, 0, 0.00000000000000000000e+00) (0, 0, 0.00000000000000000000e+00) (0, 0, 0.00000000000000000000e+00) (0, 0, 0.00000000000000000000e+00) (0, 0, 0.00000000000000000000e+00) (0, 0, 0.00000000000000000000e+00) (0, 0, 0.00000000000000000000e+00) (0, 0, 0.00000000000000000000e+00) (0, 0, 0.00000000000000000000e+00) (0, 0, 0.00000000000000000000e+00) (0, 0, 0.00000000000000000000e+00) (0, 0, 0.00000000000000000000e+00) (0, 0, 0.00000000000000000000e+00) (0, 0, 0.00000000000000000000e+00) (0, 0, 0.00000000000000000000e+00) (0, 0, 0.00000000000000000000e+00) (0, 0, 0.00000000000000000000e+00) (0, 0, 0.00000000000000000000e+00) (0, 0, 0.00000000000000000000e+00) (0, 0, 0.00000000000000000000e+00) (0, 0, 0.00000000000000000000e+00) (0, 0, 0.00000000000000000000e+00) (0, 0, 0.00000000000000000000e+00) (0, 0, 0.00000000000000000000e+00) (0, 0, 0.00000000000000000000e+00) (0, 0, 0.00000000000000000000e+00) (0, 0, 0.00000000000000000000e+00) (0, 0, 0.00000000000000000000e+00) (0, 0, 0.00000000000000000000e+00) (0, 0, 0.00000000000000000000e+00) (0, 0, 0.00000000000000000000e+00) (0, 0, 0.00000000000000000000e+00) (0, 0, 0.00000000000000000000e+00) (0, 0, 0.00000000000000000000e+00) (0, 0, 0.00000000000000000000e+00) (0, 0, 0.00000000000000000000e+00) (0, 0, 0.00000000000000000000e+00) (0, 0, 0.00000000000000000000e+00) (0, 0, 0.00000000000000000000e+00) (0, 0, 0.00000000000000000000e+00) (0, 0, 0.00000000000000000000e+00) (0, 0, 0.00000000000000000000e+00) (0, 0, 0.00000000000000000000e+00) (0, 0, 0.00000000000000000000e+00) (0, 0, 0.00000000000000000000e+00) (0, 0, 0.00000000000000000000e+00) (0, 0, 0.00000000000000000000e+00) (0, 0, 0.00000000000000000000e+00) (0, 0, 0.00000000000000000000e+00) (0, 0, 0.00000000000000000000e+00) (0, 0, 0.00000000000000000000e+00) (0, 0, 0.00000000000000000000e+00) (0, 0, 0.00000000000000000000e+00) (0, 0, 0.00000000000000000000e+00) (0, 0, 0.00000000000000000000e+00) (0, 0, 0.00000000000000000000e+00) (0, 0, 0.00000000000000000000e+00) (0, 0, 0.00000000000000000000e+00) (0, 0, 0.00000000000000000000e+00) (0, 0, 0.00000000000000000000e+00) (0, 0, 0.00000000000000000000e+00) (0, 0, 0.00000000000000000000e+00) (0, 0, 0.00000000000000000000e+00) (0, 0, 0.00000000000000000000e+00) (0, 0, 0.00000000000000000000e+00) (0, 0, 0.00000000000000000000e+00) (0, 0, 0.00000000000000000000e+00) (0, 0, 0.00000000000000000000e+00) (0, 0, 0.00000000000000000000e+00) (0, 0, 0.00000000000000000000e+00) (0, 0, 0.00000000000000000000e+00) (0, 0, 0.00000000000000000000e+00) (0, 0, 0.00000000000000000000e+00) (0, 0, 0.00000000000000000000e+00) (0, 0, 0.00000000000000000000e+00) (0, 0, 0.00000000000000000000e+00) (0, 0, 0.00000000000000000000e+00) (0, 0, 0.00000000000000000000e+00) (0, 0, 0.00000000000000000000e+00) (0, 0, 0.00000000000000000000e+00) (0, 0, 0.00000000000000000000e+00) (0, 0, 0.00000000000000000000e+00) (0, 0, 0.00000000000000000000e+00) (0, 0, 0.00000000000000000000e+00) (0, 0, 0.00000000000000000000e+00) (0, 0, 0.00000000000000000000e+00) (0, 0, 0.00000000000000000000e+00) (0, 0, 0.00000000000000000000e+00) (0, 0, 0.00000000000000000000e+00) (0, 0, 0.00000000000000000000e+00) (0, 0, 0.00000000000000000000e+00) (0, 0, 0.00000000000000000000e+00) (0, 0, 0.00000000000000000000e+00) (0, 0, 0.00000000000000000000e+00) (0, 0, 0.00000000000000000000e+00) (0, 0, 0.00000000000000000000e+00) (0, 0, 0.00000000000000000000e+00) (0, 0, 0.00000000000000000000e+00) (0, 0, 0.00000000000000000000e+00) (0, 0, 0.00000000000000000000e+00) (0, 0, 0.00000000000000000000e+00) (0, 0, 0.00000000000000000000e+00) (0, 0, 0.00000000000000000000e+00) (0, 0, 0.00000000000000000000e+00) (0, 0, 0.00000000000000000000e+00) (0, 0, 0.00000000000000000000e+00) (0, 0, 0.00000000000000000000e+00) (0, 0, 0.00000000000000000000e+00) (0, 0, 0.00000000000000000000e+00) (0, 0, 0.00000000000000000000e+00) (0, 0, 0.00000000000000000000e+00) (0, 0, 0.00000000000000000000e+00) (0, 0, 0.00000000000000000000e+00) (0, 0, 0.00000000000000000000e+00) (0, 0, 0.00000000000000000000e+00) (0, 0, 0.00000000000000000000e+00) (0, 0, 0.00000000000000000000e+00) (0, 0, 0.00000000000000000000e+00) (0, 0, 0.00000000000000000000e+00) (0, 0, 0.00000000000000000000e+00) (0, 0, 0.00000000000000000000e+00) (0, 0, 0.00000000000000000000e+00) (0, 0, 0.00000000000000000000e+00) (0, 0, 0.00000000000000000000e+00) (0, 0, 0.00000000000000000000e+00) (0, 0, 0.00000000000000000000e+00) (0, 0, 0.00000000000000000000e+00) (0, 0, 0.00000000000000000000e+00) (0, 0, 0.00000000000000000000e+00) (0, 0, 0.00000000000000000000e+00) (0, 0, 0.00000000000000000000e+00) (0, 0, 0.00000000000000000000e+00) (0, 0, 0.00000000000000000000e+00) (0, 0, 0.00000000000000000000e+00) (0, 0, 0.00000000000000000000e+00) (0, 0, 0.00000000000000000000e+00) (0, 0, 0.00000000000000000000e+00) (0, 0, 0.00000000000000000000e+00) (0, 0, 0.00000000000000000000e+00) (0, 0, 0.00000000000000000000e+00) (0, 0, 0.00000000000000000000e+00) (0, 0, 0.00000000000000000000e+00) (0, 0, 0.00000000000000000000e+00) (0, 0, 0.00000000000000000000e+00) (0, 0, 0.00000000000000000000e+00) (0, 0, 0.00000000000000000000e+00) (0, 0, 0.00000000000000000000e+00) (0, 0, 0.00000000000000000000e+00) (0, 0, 0.00000000000000000000e+00) (0, 0, 0.00000000000000000000e+00) (0, 0, 0.00000000000000000000e+00) (0, 0, 0.00000000000000000000e+00) (0, 0, 0.00000000000000000000e+00) (0, 0, 0.00000000000000000000e+00) (0, 0, 0.00000000000000000000e+00) (0, 0, 0.00000000000000000000e+00) (0, 0, 0.00000000000000000000e+00) (0, 0, 0.00000000000000000000e+00) (0, 0, 0.00000000000000000000e+00) (0, 0, 0.00000000000000000000e+00) (0, 0, 0.00000000000000000000e+00) (0, 0, 0.00000000000000000000e+00) (0, 0, 0.00000000000000000000e+00) (0, 0, 0.00000000000000000000e+00) (0, 0, 0.00000000000000000000e+00) (0, 0, 0.00000000000000000000e+00) (0, 0, 0.00000000000000000000e+00) (0, 0, 0.00000000000000000000e+00) (0, 0, 0.00000000000000000000e+00) (0, 0, 0.00000000000000000000e+00) (0, 0, 0.00000000000000000000e+00) (0, 0, 0.00000000000000000000e+00) (0, 0, 0.00000000000000000000e+00) (0, 0, 0.00000000000000000000e+00) (0, 0, 0.00000000000000000000e+00) (0, 0, 0.00000000000000000000e+00) (0, 0, 0.00000000000000000000e+00) (0, 0, 0.00000000000000000000e+00) (0, 0, 0.00000000000000000000e+00) (0, 0, 0.00000000000000000000e+00) (0, 0, 0.00000000000000000000e+00) (0, 0, 0.00000000000000000000e+00) (0, 0, 0.00000000000000000000e+00) (0, 0, 0.00000000000000000000e+00) (0, 0, 0.00000000000000000000e+00) (0, 0, 0.00000000000000000000e+00) (0, 0, 0.00000000000000000000e+00) (0, 0, 0.00000000000000000000e+00) (0, 0, 0.00000000000000000000e+00) (0, 0, 0.00000000000000000000e+00) (0, 0, 0.00000000000000000000e+00) (0, 0, 0.00000000000000000000e+00) (0, 0, 0.00000000000000000000e+00) (0, 0, 0.00000000000000000000e+00) (0, 0, 0.00000000000000000000e+00) (0, 0, 0.00000000000000000000e+00) (0, 0, 0.00000000000000000000e+00) (0, 0, 0.00000000000000000000e+00) (0, 0, 0.00000000000000000000e+00) (0, 0, 0.00000000000000000000e+00) (0, 0, 0.00000000000000000000e+00) (0, 0, 0.00000000000000000000e+00) (0, 0, 0.00000000000000000000e+00) (0, 0, 0.00000000000000000000e+00) (0, 0, 0.00000000000000000000e+00) (0, 0, 0.00000000000000000000e+00) (0, 0, 0.00000000000000000000e+00) (0, 0, 0.00000000000000000000e+00) (0, 0, 0.00000000000000000000e+00) (0, 0, 0.00000000000000000000e+00) (0, 0, 0.00000000000000000000e+00) (0, 0, 0.00000000000000000000e+00) (0, 0, 0.00000000000000000000e+00) (0, 0, 0.00000000000000000000e+00) (0, 0, 0.00000000000000000000e+00) (0, 0, 0.00000000000000000000e+00) (0, 0, 0.00000000000000000000e+00) (0, 0, 0.00000000000000000000e+00) (0, 0, 0.00000000000000000000e+00) (0, 0, 0.00000000000000000000e+00) (0, 0, 0.00000000000000000000e+00) (0, 0, 0.00000000000000000000e+00) (0, 0, 0.00000000000000000000e+00) (0, 0, 0.00000000000000000000e+00) (0, 0, 0.00000000000000000000e+00) (0, 0, 0.00000000000000000000e+00) (0, 0, 0.00000000000000000000e+00) (0, 0, 0.00000000000000000000e+00) (0, 0, 0.00000000000000000000e+00) (0, 0, 0.00000000000000000000e+00) (0, 0, 0.00000000000000000000e+00) (0, 0, 0.00000000000000000000e+00) (0, 0, 0.00000000000000000000e+00) (0, 0, 0.00000000000000000000e+00) (0, 0, 0.00000000000000000000e+00) (0, 0, 0.00000000000000000000e+00) (0, 0, 0.00000000000000000000e+00) (0, 0, 0.00000000000000000000e+00) (0, 0, 0.00000000000000000000e+00) (0, 0, 0.00000000000000000000e+00) (0, 0, 0.00000000000000000000e+00) (0, 0, 0.00000000000000000000e+00) (0, 0, 0.00000000000000000000e+00) (0, 0, 0.00000000000000000000e+00) (0, 0, 0.00000000000000000000e+00) (0, 0, 0.00000000000000000000e+00) (0, 0, 0.00000000000000000000e+00) (0, 0, 0.00000000000000000000e+00) (0, 0, 0.00000000000000000000e+00) (0, 0, 0.00000000000000000000e+00) (0, 0, 0.00000000000000000000e+00) (0, 0, 0.00000000000000000000e+00) (0, 0, 0.00000000000000000000e+00) (0, 0, 0.00000000000000000000e+00) (0, 0, 0.00000000000000000000e+00) (0, 0, 0.00000000000000000000e+00) (0, 0, 0.00000000000000000000e+00) (0, 0, 0.00000000000000000000e+00) (0, 0, 0.00000000000000000000e+00) (0, 0, 0.00000000000000000000e+00) (0, 0, 0.00000000000000000000e+00) (0, 0, 0.00000000000000000000e+00) (0, 0, 0.00000000000000000000e+00) (0, 0, 0.00000000000000000000e+00) (0, 0, 0.00000000000000000000e+00) (0, 0, 0.00000000000000000000e+00) (0, 0, 0.00000000000000000000e+00) (0, 0, 0.00000000000000000000e+00) (0, 0, 0.00000000000000000000e+00) (0, 0, 0.00000000000000000000e+00) (0, 0, 0.00000000000000000000e+00) (0, 0, 0.00000000000000000000e+00) (0, 0, 0.00000000000000000000e+00) (0, 0, 0.00000000000000000000e+00) (0, 0, 0.00000000000000000000e+00) (0, 0, 0.00000000000000000000e+00) (0, 0, 0.00000000000000000000e+00) (0, 0, 0.00000000000000000000e+00) (0, 0, 0.00000000000000000000e+00) (0, 0, 0.00000000000000000000e+00) (0, 0, 0.00000000000000000000e+00) (0, 0, 0.00000000000000000000e+00) (0, 0, 0.00000000000000000000e+00) (0, 0, 0.00000000000000000000e+00) (0, 0, 0.00000000000000000000e+00) (0, 0, 0.00000000000000000000e+00) (0, 0, 0.00000000000000000000e+00) (0, 0, 0.00000000000000000000e+00) (0, 0, 0.00000000000000000000e+00) (0, 0, 0.00000000000000000000e+00) (0, 0, 0.00000000000000000000e+00) (0, 0, 0.00000000000000000000e+00) (0, 0, 0.00000000000000000000e+00) (0, 0, 0.00000000000000000000e+00) (0, 0, 0.00000000000000000000e+00) (0, 0, 0.00000000000000000000e+00) (0, 0, 0.00000000000000000000e+00) (0, 0, 0.00000000000000000000e+00) (0, 0, 0.00000000000000000000e+00) (0, 0, 0.00000000000000000000e+00) (0, 0, 0.00000000000000000000e+00) (0, 0, 0.00000000000000000000e+00) (0, 0, 0.00000000000000000000e+00) (0, 0, 0.00000000000000000000e+00) (0, 0, 0.00000000000000000000e+00) (0, 0, 0.00000000000000000000e+00) (0, 0, 0.00000000000000000000e+00) (0, 0, 0.00000000000000000000e+00) (0, 0, 0.00000000000000000000e+00) (0, 0, 0.00000000000000000000e+00) (0, 0, 0.00000000000000000000e+00) (0, 0, 0.00000000000000000000e+00) (0, 0, 0.00000000000000000000e+00) (0, 0, 0.00000000000000000000e+00) (0, 0, 0.00000000000000000000e+00) (0, 0, 0.00000000000000000000e+00) (0, 0, 0.00000000000000000000e+00) (0, 0, 0.00000000000000000000e+00) (0, 0, 0.00000000000000000000e+00) (0, 0, 0.00000000000000000000e+00) (0, 0, 0.00000000000000000000e+00) (0, 0, 0.00000000000000000000e+00) (0, 0, 0.00000000000000000000e+00) (0, 0, 0.00000000000000000000e+00) (0, 0, 0.00000000000000000000e+00) (0, 0, 0.00000000000000000000e+00) (0, 0, 0.00000000000000000000e+00) (0, 0, 0.00000000000000000000e+00) (0, 0, 0.00000000000000000000e+00) (0, 0, 0.00000000000000000000e+00) (0, 0, 0.00000000000000000000e+00) (0, 0, 0.00000000000000000000e+00) (0, 0, 0.00000000000000000000e+00) (0, 0, 0.00000000000000000000e+00) (0, 0, 0.00000000000000000000e+00) (0, 0, 0.00000000000000000000e+00) (0, 0, 0.00000000000000000000e+00) (0, 0, 0.00000000000000000000e+00) (0, 0, 0.00000000000000000000e+00) (0, 0, 0.00000000000000000000e+00) (0, 0, 0.00000000000000000000e+00) (0, 0, 0.00000000000000000000e+00) (0, 0, 0.00000000000000000000e+00) (0, 0, 0.00000000000000000000e+00) (0, 0, 0.00000000000000000000e+00) (0, 0, 0.00000000000000000000e+00) (0, 0, 0.00000000000000000000e+00) (0, 0, 0.00000000000000000000e+00) (0, 0, 0.00000000000000000000e+00) (0, 0, 0.00000000000000000000e+00) (0, 0, 0.00000000000000000000e+00) (0, 0, 0.00000000000000000000e+00) (0, 0, 0.00000000000000000000e+00) (0, 0, 0.00000000000000000000e+00) (0, 0, 0.00000000000000000000e+00) (0, 0, 0.00000000000000000000e+00) (0, 0, 0.00000000000000000000e+00) (0, 0, 0.00000000000000000000e+00) (0, 0, 0.00000000000000000000e+00) (0, 0, 0.00000000000000000000e+00) (0, 0, 0.00000000000000000000e+00) (0, 0, 0.00000000000000000000e+00) (0, 0, 0.00000000000000000000e+00) (0, 0, 0.00000000000000000000e+00) (0, 0, 0.00000000000000000000e+00) (0, 0, 0.00000000000000000000e+00) (0, 0, 0.00000000000000000000e+00) (0, 0, 0.00000000000000000000e+00) (0, 0, 0.00000000000000000000e+00) (0, 0, 0.00000000000000000000e+00) (0, 0, 0.00000000000000000000e+00) (0, 0, 0.00000000000000000000e+00) (0, 0, 0.00000000000000000000e+00) (0, 0, 0.00000000000000000000e+00) (0, 0, 0.00000000000000000000e+00) (0, 0, 0.00000000000000000000e+00) (0, 0, 0.00000000000000000000e+00) (0, 0, 0.00000000000000000000e+00) (0, 0, 0.00000000000000000000e+00) (0, 0, 0.00000000000000000000e+00) (0, 0, 0.00000000000000000000e+00) (0, 0, 0.00000000000000000000e+00) (0, 0, 0.00000000000000000000e+00) (0, 0, 0.00000000000000000000e+00) (0, 0, 0.00000000000000000000e+00) (0, 0, 0.00000000000000000000e+00) (0, 0, 0.00000000000000000000e+00) (0, 0, 0.00000000000000000000e+00) (0, 0, 0.00000000000000000000e+00) (0, 0, 0.00000000000000000000e+00) (0, 0, 0.00000000000000000000e+00) (0, 0, 0.00000000000000000000e+00) (0, 0, 0.00000000000000000000e+00) (0, 0, 0.00000000000000000000e+00) (0, 0, 0.00000000000000000000e+00) (0, 0, 0.00000000000000000000e+00) (0, 0, 0.00000000000000000000e+00) (0, 0, 0.00000000000000000000e+00) (0, 0, 0.00000000000000000000e+00) (0, 0, 0.00000000000000000000e+00) (0, 0, 0.00000000000000000000e+00) (0, 0, 0.00000000000000000000e+00) (0, 0, 0.00000000000000000000e+00) (0, 0, 0.00000000000000000000e+00) (0, 0, 0.00000000000000000000e+00) (0, 0, 0.00000000000000000000e+00) (0, 0, 0.00000000000000000000e+00) (0, 0, 0.00000000000000000000e+00) (0, 0, 0.00000000000000000000e+00) (0, 0, 0.00000000000000000000e+00) (0, 0, 0.00000000000000000000e+00) (0, 0, 0.00000000000000000000e+00) (0, 0, 0.00000000000000000000e+00) (0, 0, 0.00000000000000000000e+00) (0, 0, 0.00000000000000000000e+00) (0, 0, 0.00000000000000000000e+00) (0, 0, 0.00000000000000000000e+00) (0, 0, 0.00000000000000000000e+00) (0, 0, 0.00000000000000000000e+00) (0, 0, 0.00000000000000000000e+00) (0, 0, 0.00000000000000000000e+00) (0, 0, 0.00000000000000000000e+00) (0, 0, 0.00000000000000000000e+00) (0, 0, 0.00000000000000000000e+00) (0, 0, 0.00000000000000000000e+00) (0, 0, 0.00000000000000000000e+00) (0, 0, 0.00000000000000000000e+00) (0, 0, 0.00000000000000000000e+00) (0, 0, 0.00000000000000000000e+00) (0, 0, 0.00000000000000000000e+00) (0, 0, 0.00000000000000000000e+00) (0, 0, 0.00000000000000000000e+00) (0, 0, 0.00000000000000000000e+00) (0, 0, 0.00000000000000000000e+00) (0, 0, 0.00000000000000000000e+00) (0, 0, 0.00000000000000000000e+00) (0, 0, 0.00000000000000000000e+00) (0, 0, 0.00000000000000000000e+00) (0, 0, 0.00000000000000000000e+00) (0, 0, 0.00000000000000000000e+00) (0, 0, 0.00000000000000000000e+00) (0, 0, 0.00000000000000000000e+00) (0, 0, 0.00000000000000000000e+00) (0, 0, 0.00000000000000000000e+00) (0, 0, 0.00000000000000000000e+00) (0, 0, 0.00000000000000000000e+00) (0, 0, 0.00000000000000000000e+00) (0, 0, 0.00000000000000000000e+00) (0, 0, 0.00000000000000000000e+00) (0, 0, 0.00000000000000000000e+00) (0, 0, 0.00000000000000000000e+00) (0, 0, 0.00000000000000000000e+00) (0, 0, 0.00000000000000000000e+00) (0, 0, 0.00000000000000000000e+00) (0, 0, 0.00000000000000000000e+00) (0, 0, 0.00000000000000000000e+00) (0, 0, 0.00000000000000000000e+00) (0, 0, 0.00000000000000000000e+00) (0, 0, 0.00000000000000000000e+00) (0, 0, 0.00000000000000000000e+00) (0, 0, 0.00000000000000000000e+00) (0, 0, 0.00000000000000000000e+00) (0, 0, 0.00000000000000000000e+00) (0, 0, 0.00000000000000000000e+00) (0, 0, 0.00000000000000000000e+00) (0, 0, 0.00000000000000000000e+00) (0, 0, 0.00000000000000000000e+00) (0, 0, 0.00000000000000000000e+00) (0, 0, 0.00000000000000000000e+00) (0, 0, 0.00000000000000000000e+00) (0, 0, 0.00000000000000000000e+00) (0, 0, 0.00000000000000000000e+00) (0, 0, 0.00000000000000000000e+00) (0, 0, 0.00000000000000000000e+00) (0, 0, 0.00000000000000000000e+00) (0, 0, 0.00000000000000000000e+00) (0, 0, 0.00000000000000000000e+00) (0, 0, 0.00000000000000000000e+00) (0, 0, 0.00000000000000000000e+00) (0, 0, 0.00000000000000000000e+00) (0, 0, 0.00000000000000000000e+00) (0, 0, 0.00000000000000000000e+00) (0, 0, 0.00000000000000000000e+00) (0, 0, 0.00000000000000000000e+00) (0, 0, 0.00000000000000000000e+00) (0, 0, 0.00000000000000000000e+00) (0, 0, 0.00000000000000000000e+00) (0, 0, 0.00000000000000000000e+00) (0, 0, 0.00000000000000000000e+00) (0, 0, 0.00000000000000000000e+00) (0, 0, 0.00000000000000000000e+00) (0, 0, 0.00000000000000000000e+00) (0, 0, 0.00000000000000000000e+00) (0, 0, 0.00000000000000000000e+00) (0, 0, 0.00000000000000000000e+00) (0, 0, 0.00000000000000000000e+00) (0, 0, 0.00000000000000000000e+00) (0, 0, 0.00000000000000000000e+00) (0, 0, 0.00000000000000000000e+00) (0, 0, 0.00000000000000000000e+00) (0, 0, 0.00000000000000000000e+00) (0, 0, 0.00000000000000000000e+00) (0, 0, 0.00000000000000000000e+00) (0, 0, 0.00000000000000000000e+00) (0, 0, 0.00000000000000000000e+00) (0, 0, 0.00000000000000000000e+00) (0, 0, 0.00000000000000000000e+00) (0, 0, 0.00000000000000000000e+00) (0, 0, 0.00000000000000000000e+00) (0, 0, 0.00000000000000000000e+00) (0, 0, 0.00000000000000000000e+00) (0, 0, 0.00000000000000000000e+00) (0, 0, 0.00000000000000000000e+00) (0, 0, 0.00000000000000000000e+00) (0, 0, 0.00000000000000000000e+00) (0, 0, 0.00000000000000000000e+00) (0, 0, 0.00000000000000000000e+00) (0, 0, 0.00000000000000000000e+00) (0, 0, 0.00000000000000000000e+00) (0, 0, 0.00000000000000000000e+00) (0, 0, 0.00000000000000000000e+00) (0, 0, 0.00000000000000000000e+00) (0, 0, 0.00000000000000000000e+00) (0, 0, 0.00000000000000000000e+00) (0, 0, 0.00000000000000000000e+00) (0, 0, 0.00000000000000000000e+00) (0, 0, 0.00000000000000000000e+00) (0, 0, 0.00000000000000000000e+00) (0, 0, 0.00000000000000000000e+00) (0, 0, 0.00000000000000000000e+00) (0, 0, 0.00000000000000000000e+00) (0, 0, 0.00000000000000000000e+00) (0, 0, 0.00000000000000000000e+00) (0, 0, 0.00000000000000000000e+00) (0, 0, 0.00000000000000000000e+00) (0, 0, 0.00000000000000000000e+00) (0, 0, 0.00000000000000000000e+00) (0, 0, 0.00000000000000000000e+00) (0, 0, 0.00000000000000000000e+00) (0, 0, 0.00000000000000000000e+00) (0, 0, 0.00000000000000000000e+00) (0, 0, 0.00000000000000000000e+00) (0, 0, 0.00000000000000000000e+00) (0, 0, 0.00000000000000000000e+00) (0, 0, 0.00000000000000000000e+00) (0, 0, 0.00000000000000000000e+00) (0, 0, 0.00000000000000000000e+00) (0, 0, 0.00000000000000000000e+00) (0, 0, 0.00000000000000000000e+00) (0, 0, 0.00000000000000000000e+00) (0, 0, 0.00000000000000000000e+00) (0, 0, 0.00000000000000000000e+00) (0, 0, 0.00000000000000000000e+00) (0, 0, 0.00000000000000000000e+00) (0, 0, 0.00000000000000000000e+00) (0, 0, 0.00000000000000000000e+00) (0, 0, 0.00000000000000000000e+00) (0, 0, 0.00000000000000000000e+00) (0, 0, 0.00000000000000000000e+00) (0, 0, 0.00000000000000000000e+00) (0, 0, 0.00000000000000000000e+00) (0, 0, 0.00000000000000000000e+00) (0, 0, 0.00000000000000000000e+00) (0, 0, 0.00000000000000000000e+00) (0, 0, 0.00000000000000000000e+00) (0, 0, 0.00000000000000000000e+00) (0, 0, 0.00000000000000000000e+00) (0, 0, 0.00000000000000000000e+00) (0, 0, 0.00000000000000000000e+00) (0, 0, 0.00000000000000000000e+00) (0, 0, 0.00000000000000000000e+00) (0, 0, 0.00000000000000000000e+00) (0, 0, 0.00000000000000000000e+00) (0, 0, 0.00000000000000000000e+00) (0, 0, 0.00000000000000000000e+00) (0, 0, 0.00000000000000000000e+00) (0, 0, 0.00000000000000000000e+00) (0, 0, 0.00000000000000000000e+00) (0, 0, 0.00000000000000000000e+00) (0, 0, 0.00000000000000000000e+00) (0, 0, 0.00000000000000000000e+00) (0, 0, 0.00000000000000000000e+00) (0, 0, 0.00000000000000000000e+00) (0, 0, 0.00000000000000000000e+00) (0, 0, 0.00000000000000000000e+00) (0, 0, 0.00000000000000000000e+00) (0, 0, 0.00000000000000000000e+00) (0, 0, 0.00000000000000000000e+00) (0, 0, 0.00000000000000000000e+00) (0, 0, 0.00000000000000000000e+00) (0, 0, 0.00000000000000000000e+00) (0, 0, 0.00000000000000000000e+00) (0, 0, 0.00000000000000000000e+00) (0, 0, 0.00000000000000000000e+00) (0, 0, 0.00000000000000000000e+00) (0, 0, 0.00000000000000000000e+00) (0, 0, 0.00000000000000000000e+00) (0, 0, 0.00000000000000000000e+00) (0, 0, 0.00000000000000000000e+00) (0, 0, 0.00000000000000000000e+00) (0, 0, 0.00000000000000000000e+00) (0, 0, 0.00000000000000000000e+00) (0, 0, 0.00000000000000000000e+00) (0, 0, 0.00000000000000000000e+00) (0, 0, 0.00000000000000000000e+00) (0, 0, 0.00000000000000000000e+00) (0, 0, 0.00000000000000000000e+00) (0, 0, 0.00000000000000000000e+00) (0, 0, 0.00000000000000000000e+00) (0, 0, 0.00000000000000000000e+00) (0, 0, 0.00000000000000000000e+00) (0, 0, 0.00000000000000000000e+00) (0, 0, 0.00000000000000000000e+00) (0, 0, 0.00000000000000000000e+00) (0, 0, 0.00000000000000000000e+00) (0, 0, 0.00000000000000000000e+00) (0, 0, 0.00000000000000000000e+00) (0, 0, 0.00000000000000000000e+00) (0, 0, 0.00000000000000000000e+00) (0, 0, 0.00000000000000000000e+00) (0, 0, 0.00000000000000000000e+00) (0, 0, 0.00000000000000000000e+00) (0, 0, 0.00000000000000000000e+00) (0, 0, 0.00000000000000000000e+00) (0, 0, 0.00000000000000000000e+00) (0, 0, 0.00000000000000000000e+00) (0, 0, 0.00000000000000000000e+00) (0, 0, 0.00000000000000000000e+00) (0, 0, 0.00000000000000000000e+00) (0, 0, 0.00000000000000000000e+00) (0, 0, 0.00000000000000000000e+00) (0, 0, 0.00000000000000000000e+00) (0, 0, 0.00000000000000000000e+00) (0, 0, 0.00000000000000000000e+00) (0, 0, 0.00000000000000000000e+00) (0, 0, 0.00000000000000000000e+00) (0, 0, 0.00000000000000000000e+00) (0, 0, 0.00000000000000000000e+00) (0, 0, 0.00000000000000000000e+00) (0, 0, 0.00000000000000000000e+00) (0, 0, 0.00000000000000000000e+00) (0, 0, 0.00000000000000000000e+00) (0, 0, 0.00000000000000000000e+00) (0, 0, 0.00000000000000000000e+00) (0, 0, 0.00000000000000000000e+00) (0, 0, 0.00000000000000000000e+00) (0, 0, 0.00000000000000000000e+00) (0, 0, 0.00000000000000000000e+00) (0, 0, 0.00000000000000000000e+00) (0, 0, 0.00000000000000000000e+00) (0, 0, 0.00000000000000000000e+00) (0, 0, 0.00000000000000000000e+00) (0, 0, 0.00000000000000000000e+00) (0, 0, 0.00000000000000000000e+00) (0, 0, 0.00000000000000000000e+00) (0, 0, 0.00000000000000000000e+00) (0, 0, 0.00000000000000000000e+00) (0, 0, 0.00000000000000000000e+00) (0, 0, 0.00000000000000000000e+00) (0, 0, 0.00000000000000000000e+00) (0, 0, 0.00000000000000000000e+00) (0, 0, 0.00000000000000000000e+00) (0, 0, 0.00000000000000000000e+00) (0, 0, 0.00000000000000000000e+00) (0, 0, 0.00000000000000000000e+00) (0, 0, 0.00000000000000000000e+00) (0, 0, 0.00000000000000000000e+00) (0, 0, 0.00000000000000000000e+00) (0, 0, 0.00000000000000000000e+00) (0, 0, 0.00000000000000000000e+00) (0, 0, 0.00000000000000000000e+00) (0, 0, 0.00000000000000000000e+00) (0, 0, 0.00000000000000000000e+00) (0, 0, 0.00000000000000000000e+00) (0, 0, 0.00000000000000000000e+00) (0, 0, 0.00000000000000000000e+00) (0, 0, 0.00000000000000000000e+00) (0, 0, 0.00000000000000000000e+00) (0, 0, 0.00000000000000000000e+00) (0, 0, 0.00000000000000000000e+00) (0, 0, 0.00000000000000000000e+00) (0, 0, 0.00000000000000000000e+00) (0, 0, 0.00000000000000000000e+00) (0, 0, 0.00000000000000000000e+00) (0, 0, 0.00000000000000000000e+00) (0, 0, 0.00000000000000000000e+00) (0, 0, 0.00000000000000000000e+00) (0, 0, 0.00000000000000000000e+00) (0, 0, 0.00000000000000000000e+00) (0, 0, 0.00000000000000000000e+00) (0, 0, 0.00000000000000000000e+00) (0, 0, 0.00000000000000000000e+00) (0, 0, 0.00000000000000000000e+00) (0, 0, 0.00000000000000000000e+00) (0, 0, 0.00000000000000000000e+00) (0, 0, 0.00000000000000000000e+00) (0, 0, 0.00000000000000000000e+00) (0, 0, 0.00000000000000000000e+00) (0, 0, 0.00000000000000000000e+00) (0, 0, 0.00000000000000000000e+00) (0, 0, 0.00000000000000000000e+00) (0, 0, 0.00000000000000000000e+00) (0, 0, 0.00000000000000000000e+00) (0, 0, 0.00000000000000000000e+00) (0, 0, 0.00000000000000000000e+00) (0, 0, 0.00000000000000000000e+00) (0, 0, 0.00000000000000000000e+00) (0, 0, 0.00000000000000000000e+00) (0, 0, 0.00000000000000000000e+00) (0, 0, 0.00000000000000000000e+00) (0, 0, 0.00000000000000000000e+00) (0, 0, 0.00000000000000000000e+00) (0, 0, 0.00000000000000000000e+00) (0, 0, 0.00000000000000000000e+00) (0, 0, 0.00000000000000000000e+00) (0, 0, 0.00000000000000000000e+00) (0, 0, 0.00000000000000000000e+00) (0, 0, 0.00000000000000000000e+00) (0, 0, 0.00000000000000000000e+00) (0, 0, 0.00000000000000000000e+00) (0, 0, 0.00000000000000000000e+00) (0, 0, 0.00000000000000000000e+00) (0, 0, 0.00000000000000000000e+00) (0, 0, 0.00000000000000000000e+00) (0, 0, 0.00000000000000000000e+00) (0, 0, 0.00000000000000000000e+00) (0, 0, 0.00000000000000000000e+00) (0, 0, 0.00000000000000000000e+00) (0, 0, 0.00000000000000000000e+00) (0, 0, 0.00000000000000000000e+00) (0, 0, 0.00000000000000000000e+00) (0, 0, 0.00000000000000000000e+00) (0, 0, 0.00000000000000000000e+00) (0, 0, 0.00000000000000000000e+00) (0, 0, 0.00000000000000000000e+00) (0, 0, 0.00000000000000000000e+00) (0, 0, 0.00000000000000000000e+00) (0, 0, 0.00000000000000000000e+00) (0, 0, 0.00000000000000000000e+00) (0, 0, 0.00000000000000000000e+00) (0, 0, 0.00000000000000000000e+00) (0, 0, 0.00000000000000000000e+00) (0, 0, 0.00000000000000000000e+00) (0, 0, 0.00000000000000000000e+00) (0, 0, 0.00000000000000000000e+00) (0, 0, 0.00000000000000000000e+00) (0, 0, 0.00000000000000000000e+00) (0, 0, 0.00000000000000000000e+00) (0, 0, 0.00000000000000000000e+00) (0, 0, 0.00000000000000000000e+00) (0, 0, 0.00000000000000000000e+00) (0, 0, 0.00000000000000000000e+00) (0, 0, 0.00000000000000000000e+00) (0, 0, 0.00000000000000000000e+00) (0, 0, 0.00000000000000000000e+00) (0, 0, 0.00000000000000000000e+00) (0, 0, 0.00000000000000000000e+00) (0, 0, 0.00000000000000000000e+00) (0, 0, 0.00000000000000000000e+00) (0, 0, 0.00000000000000000000e+00) (0, 0, 0.00000000000000000000e+00) (0, 0, 0.00000000000000000000e+00) (785, 5, 5.00000000000000000000e-01) (785, 5, 5.00000000000000000000e-01) (785, 5, 5.00000000000000000000e-01) (785, 5, 5.00000000000000000000e-01) (785, 5, 5.00000000000000000000e-01) (785, 5, 5.00000000000000000000e-01) (785, 5, 5.00000000000000000000e-01) (785, 5, 5.00000000000000000000e-01) (785, 5, 5.00000000000000000000e-01) (785, 5, 5.00000000000000000000e-01) (785, 5, 5.00000000000000000000e-01) (785, 5, 5.00000000000000000000e-01) (785, 5, 5.00000000000000000000e-01) (785, 5, 5.00000000000000000000e-01) (785, 5, 5.00000000000000000000e-01) (785, 5, 5.00000000000000000000e-01) (785, 5, 5.00000000000000000000e-01) (785, 5, 5.00000000000000000000e-01) (785, 5, 5.00000000000000000000e-01) (785, 5, 5.00000000000000000000e-01) (785, 5, 5.00000000000000000000e-01) (785, 5, 5.00000000000000000000e-01) (785, 5, 5.00000000000000000000e-01) (785, 5, 5.00000000000000000000e-01) (785, 5, 5.00000000000000000000e-01) (785, 5, 5.00000000000000000000e-01) (785, 5, 5.00000000000000000000e-01) (785, 5, 5.00000000000000000000e-01) (785, 5, 5.00000000000000000000e-01) (785, 5, 5.00000000000000000000e-01) (0, 5, 0.00000000000000000000e+00) (31, 5, 5.00000000000000000000e-01) (31, 5, 5.00000000000000000000e-01) (31, 5, 5.00000000000000000000e-01) (31, 5, 5.00000000000000000000e-01) (31, 5, 5.00000000000000000000e-01) (31, 5, 5.00000000000000000000e-01) (31, 5, 5.00000000000000000000e-01) (31, 5, 5.00000000000000000000e-01) (31, 5, 5.00000000000000000000e-01) (31, 5, 5.00000000000000000000e-01) (0, 5, 0.00000000000000000000e+00) 
connections (connected_to_neuron, weight)=(0, 1.50000000000000000000e+03) (1, 1.50000000000000000000e+03) (2, 1.50000000000000000000e+03) (3, 1.50000000000000000000e+03) (4, 1.50000000000000000000e+03) (5, 1.50000000000000000000e+03) (6, 1.50000000000000000000e+03) (7, 1.50000000000000000000e+03) (8, 1.50000000000000000000e+03) (9, 1.50000000000000000000e+03) (10, 1.50000000000000000000e+03) (11, 1.50000000000000000000e+03) (12, 1.50000000000000000000e+03) (13, 1.50000000000000000000e+03) (14, 1.50000000000000000000e+03) (15, 1.50000000000000000000e+03) (16, 1.50000000000000000000e+03) (17, 1.50000000000000000000e+03) (18, 1.50000000000000000000e+03) (19, 1.50000000000000000000e+03) (20, 1.50000000000000000000e+03) (21, 1.50000000000000000000e+03) (22, 1.50000000000000000000e+03) (23, 1.50000000000000000000e+03) (24, 1.50000000000000000000e+03) (25, 1.50000000000000000000e+03) (26, 1.50000000000000000000e+03) (27, 1.50000000000000000000e+03) (28, 1.50000000000000000000e+03) (29, 1.50000000000000000000e+03) (30, 1.50000000000000000000e+03) (31, 1.50000000000000000000e+03) (32, 1.50000000000000000000e+03) (33, 1.50000000000000000000e+03) (34, 1.50000000000000000000e+03) (35, 1.50000000000000000000e+03) (36, 1.50000000000000000000e+03) (37, 1.50000000000000000000e+03) (38, 1.50000000000000000000e+03) (39, 1.50000000000000000000e+03) (40, 1.50000000000000000000e+03) (41, 1.50000000000000000000e+03) (42, 1.50000000000000000000e+03) (43, 1.50000000000000000000e+03) (44, 1.50000000000000000000e+03) (45, 1.50000000000000000000e+03) (46, 1.50000000000000000000e+03) (47, 1.50000000000000000000e+03) (48, 1.50000000000000000000e+03) (49, 1.50000000000000000000e+03) (50, 1.50000000000000000000e+03) (51, 1.50000000000000000000e+03) (52, 1.50000000000000000000e+03) (53, 1.50000000000000000000e+03) (54, 1.50000000000000000000e+03) (55, 1.50000000000000000000e+03) (56, 1.50000000000000000000e+03) (57, 1.50000000000000000000e+03) (58, 1.50000000000000000000e+03) (59, 1.50000000000000000000e+03) (60, 1.50000000000000000000e+03) (61, 1.50000000000000000000e+03) (62, 1.50000000000000000000e+03) (63, 1.50000000000000000000e+03) (64, 1.50000000000000000000e+03) (65, 1.50000000000000000000e+03) (66, 1.50000000000000000000e+03) (67, 1.50000000000000000000e+03) (68, 1.50000000000000000000e+03) (69, 1.50000000000000000000e+03) (70, 1.50000000000000000000e+03) (71, 1.50000000000000000000e+03) (72, 1.50000000000000000000e+03) (73, 1.50000000000000000000e+03) (74, 1.50000000000000000000e+03) (75, 1.50000000000000000000e+03) (76, 1.50000000000000000000e+03) (77, 1.50000000000000000000e+03) (78, 1.50000000000000000000e+03) (79, 1.50000000000000000000e+03) (80, -7.73751831054687500000e+02) (81, 9.06598449707031250000e+02) (82, 1.50000000000000000000e+03) (83, 1.50000000000000000000e+03) (84, 1.50000000000000000000e+03) (85, 1.50000000000000000000e+03) (86, 1.50000000000000000000e+03) (87, 1.50000000000000000000e+03) (88, 1.50000000000000000000e+03) (89, 1.44046130371093750000e+03) (90, 1.50000000000000000000e+03) (91, 1.50000000000000000000e+03) (92, 1.50000000000000000000e+03) (93, 1.50000000000000000000e+03) (94, 1.50000000000000000000e+03) (95, 1.31018920898437500000e+03) (96, -3.09644958496093750000e+02) (97, -1.03706591796875000000e+03) (98, 3.68694427490234375000e+02) (99, 1.00152416992187500000e+03) (100, 1.35313317871093750000e+03) (101, 1.50000000000000000000e+03) (102, 1.27397412109375000000e+03) (103, -7.43680175781250000000e+02) (104, -1.15833178710937500000e+03) (105, -1.05669189453125000000e+03) (106, -1.07500000000000000000e+03) (107, -1.50000000000000000000e+03) (108, -1.50000000000000000000e+03) (109, -1.50000000000000000000e+03) (110, -3.20800048828125000000e+02) (111, 1.50000000000000000000e+03) (112, 1.50000000000000000000e+03) (113, 1.07500000000000000000e+03) (114, 8.40800048828125000000e+02) (115, -1.40281787109375000000e+03) (116, 3.72021484375000000000e+00) (117, 1.17391052246093750000e+03) (118, -3.74124755859375000000e+02) (119, -1.50000000000000000000e+03) (120, -1.50000000000000000000e+03) (121, -1.50000000000000000000e+03) (122, -1.50000000000000000000e+03) (123, -1.50000000000000000000e+03) (124, -1.50000000000000000000e+03) (125, -1.50000000000000000000e+03) (126, -1.50000000000000000000e+03) (127, -1.03754772949218750000e+03) (128, 2.91786041259765625000e+02) (129, -1.46103747558593750000e+03) (130, -1.41210998535156250000e+03) (131, -1.38333874511718750000e+03) (132, -1.35250756835937500000e+03) (133, -2.17690917968750000000e+02) (134, 1.49373864746093750000e+03) (135, 1.50000000000000000000e+03) (136, 1.50000000000000000000e+03) (137, 1.50000000000000000000e+03) (138, 1.50000000000000000000e+03) (139, 1.50000000000000000000e+03) (140, 1.50000000000000000000e+03) (141, 1.50000000000000000000e+03) (142, 1.04080004882812500000e+03) (143, 6.56261352539062500000e+02) (144, 1.50000000000000000000e+03) (145, 1.49550012207031250000e+03) (146, -1.50000000000000000000e+03) (147, -1.50000000000000000000e+03) (148, -1.50000000000000000000e+03) (149, -1.50000000000000000000e+03) (150, -3.01941711425781250000e+02) (151, -3.19681365966796875000e+02) (152, -3.72722167968750000000e+02) (153, -3.15327331542968750000e+02) (154, -1.49227111816406250000e+02) (155, 9.68374633789062500000e+01) (156, 1.47422009277343750000e+03) (157, 1.48418896484375000000e+03) (158, 1.50000000000000000000e+03) (159, 1.50000000000000000000e+03) (160, 1.50000000000000000000e+03) (161, 1.50000000000000000000e+03) (162, 1.50000000000000000000e+03) (163, 1.50000000000000000000e+03) (164, 1.50000000000000000000e+03) (165, 1.50000000000000000000e+03) (166, 1.50000000000000000000e+03) (167, -5.65800048828125000000e+02) (168, 1.50000000000000000000e+03) (169, 1.50000000000000000000e+03) (170, 1.50000000000000000000e+03) (171, 9.40800048828125000000e+02) (172, 1.50000000000000000000e+03) (173, -4.95909820556640625000e+02) (174, -1.47500000000000000000e+03) (175, -1.47500000000000000000e+03) (176, -1.24321972656250000000e+03) (177, 4.14887390136718750000e+02) (178, 1.33129113769531250000e+03) (179, 1.43059768676757812500e+02) (180, 1.48419787597656250000e+03) (181, -2.42268371582031250000e+02) (182, -1.79343200683593750000e+02) (183, 1.30506713867187500000e+02) (184, 9.30299743652343750000e+02) (185, 9.87760498046875000000e+02) (186, 1.01233728027343750000e+03) (187, 1.49795166015625000000e+03) (188, 1.50000000000000000000e+03) (189, 1.50000000000000000000e+03) (190, 1.50000000000000000000e+03) (191, 1.50000000000000000000e+03) (192, 1.50000000000000000000e+03) (193, 1.50000000000000000000e+03) (194, 1.50000000000000000000e+03) (195, 1.50000000000000000000e+03) (196, 4.99999465942382812500e+01) (197, 1.50000000000000000000e+03) (198, -1.50000000000000000000e+03) (199, -1.50000000000000000000e+03) (200, -1.36103540039062500000e+03) (201, 2.61575622558593750000e+02) (202, -1.44500000000000000000e+03) (203, -1.44500000000000000000e+03) (204, 6.63233947753906250000e+02) (205, 8.26585449218750000000e+02) (206, 3.31578521728515625000e+01) (207, 1.68233442306518554688e+00) (208, -1.56785500049591064453e+00) (209, -1.06313476562500000000e+01) (210, -1.07890548706054687500e+02) (211, -1.50000000000000000000e+03) (212, -1.50000000000000000000e+03) (213, -6.87523559570312500000e+02) (214, 1.27765884399414062500e+02) (215, 9.56723632812500000000e+02) (216, 1.49999804687500000000e+03) (217, 1.50000000000000000000e+03) (218, 1.50000000000000000000e+03) (219, 1.50000000000000000000e+03) (220, 1.50000000000000000000e+03) (221, 1.50000000000000000000e+03) (222, 1.50000000000000000000e+03) (223, 1.50000000000000000000e+03) (224, 1.50000000000000000000e+03) (225, 3.84199951171875000000e+02) (226, -1.50000000000000000000e+03) (227, -1.50000000000000000000e+03) (228, -1.50000000000000000000e+03) (229, -1.48502441406250000000e+03) (230, -1.47500000000000000000e+03) (231, 9.09608947753906250000e+02) (232, -1.33223071289062500000e+03) (233, 3.71313476562500000000e+02) (234, 1.17952124023437500000e+03) (235, 3.20103027343750000000e+02) (236, -9.35789794921875000000e+02) (237, -1.38913732910156250000e+03) (238, -1.50000000000000000000e+03) (239, -1.50000000000000000000e+03) (240, -1.50000000000000000000e+03) (241, -1.50000000000000000000e+03) (242, -1.50000000000000000000e+03) (243, -2.45507019042968750000e+02) (244, 1.48943603515625000000e+03) (245, 1.49878186035156250000e+03) (246, 1.50000000000000000000e+03) (247, 1.50000000000000000000e+03) (248, 1.50000000000000000000e+03) (249, 1.50000000000000000000e+03) (250, 1.50000000000000000000e+03) (251, 1.50000000000000000000e+03) (252, -1.50000000000000000000e+03) (253, -1.38000000000000000000e+03) (254, -1.50000000000000000000e+03) (255, -1.50000000000000000000e+03) (256, -1.50000000000000000000e+03) (257, -1.50000000000000000000e+03) (258, -1.43964306640625000000e+03) (259, -7.98669128417968750000e+02) (260, -9.85131286621093750000e+02) (261, -1.03110070800781250000e+03) (262, -1.48502441406250000000e+03) (263, -9.48442016601562500000e+02) (264, -1.30965856933593750000e+03) (265, -1.48869335937500000000e+03) (266, -1.46177270507812500000e+03) (267, -1.20349084472656250000e+03) (268, -1.33107128906250000000e+03) (269, -1.50000000000000000000e+03) (270, -1.50000000000000000000e+03) (271, -1.50000000000000000000e+03) (272, -1.50000000000000000000e+03) (273, 1.48078393554687500000e+03) (274, 1.50000000000000000000e+03) (275, 1.50000000000000000000e+03) (276, 1.50000000000000000000e+03) (277, 1.50000000000000000000e+03) (278, 1.50000000000000000000e+03) (279, 1.50000000000000000000e+03) (280, -1.50000000000000000000e+03) (281, -1.50000000000000000000e+03) (282, -1.50000000000000000000e+03) (283, -1.50000000000000000000e+03) (284, -1.50000000000000000000e+03) (285, -1.50000000000000000000e+03) (286, -1.36525280761718750000e+03) (287, -1.07851586914062500000e+03) (288, -9.53606079101562500000e+02) (289, -1.28550567626953125000e+02) (290, -4.12227745056152343750e+01) (291, -1.33366804122924804688e+01) (292, 1.02476391601562500000e+03) (293, 1.50000000000000000000e+03) (294, 1.50000000000000000000e+03) (295, -1.23267138671875000000e+03) (296, -1.50000000000000000000e+03) (297, -1.50000000000000000000e+03) (298, -1.50000000000000000000e+03) (299, -1.50000000000000000000e+03) (300, -1.50000000000000000000e+03) (301, -1.50000000000000000000e+03) (302, 7.00533447265625000000e+02) (303, 1.50000000000000000000e+03) (304, 1.50000000000000000000e+03) (305, 1.50000000000000000000e+03) (306, 1.50000000000000000000e+03) (307, 1.50000000000000000000e+03) (308, -9.47618164062500000000e+02) (309, -1.50000000000000000000e+03) (310, -1.50000000000000000000e+03) (311, -1.50000000000000000000e+03) (312, -1.50000000000000000000e+03) (313, -1.50000000000000000000e+03) (314, -1.36002709960937500000e+03) (315, -7.72299499511718750000e+02) (316, -5.00063972473144531250e+01) (317, 2.91195983886718750000e+01) (318, 2.57217788696289062500e+01) (319, 1.50000000000000000000e+03) (320, 1.50000000000000000000e+03) (321, 1.50000000000000000000e+03) (322, 1.50000000000000000000e+03) (323, -1.23050399780273437500e+02) (324, -1.50000000000000000000e+03) (325, -1.50000000000000000000e+03) (326, -1.50000000000000000000e+03) (327, -1.50000000000000000000e+03) (328, -1.50000000000000000000e+03) (329, -1.50000000000000000000e+03) (330, -1.50000000000000000000e+03) (331, 1.49816210937500000000e+03) (332, 1.50000000000000000000e+03) (333, 1.50000000000000000000e+03) (334, 1.50000000000000000000e+03) (335, 1.50000000000000000000e+03) (336, 8.01116149902343750000e+02) (337, -1.50000000000000000000e+03) (338, -1.50000000000000000000e+03) (339, -1.50000000000000000000e+03) (340, -1.50000000000000000000e+03) (341, -7.51617431640625000000e+02) (342, -1.47831042480468750000e+03) (343, -8.18077392578125000000e+01) (344, 1.20169794559478759766e+00) (345, 4.59735488891601562500e+01) (346, 1.50000000000000000000e+03) (347, 1.50000000000000000000e+03) (348, 1.50000000000000000000e+03) (349, 1.50000000000000000000e+03) (350, 1.50000000000000000000e+03) (351, 1.51062030792236328125e+01) (352, -1.35270544433593750000e+03) (353, -1.50000000000000000000e+03) (354, -1.50000000000000000000e+03) (355, -1.50000000000000000000e+03) (356, -1.50000000000000000000e+03) (357, -1.50000000000000000000e+03) (358, -1.47500000000000000000e+03) (359, 4.49131835937500000000e+02) (360, 1.50000000000000000000e+03) (361, 1.50000000000000000000e+03) (362, 1.50000000000000000000e+03) (363, -1.50000000000000000000e+03) (364, 1.25860253906250000000e+03) (365, -1.50000000000000000000e+03) (366, -1.50000000000000000000e+03) (367, -1.50000000000000000000e+03) (368, -1.50000000000000000000e+03) (369, -1.18171838378906250000e+03) (370, 6.46784606933593750000e+02) (371, -1.04764733886718750000e+03) (372, -2.14070968627929687500e+01) (373, 1.50000000000000000000e+03) (374, 1.50000000000000000000e+03) (375, 1.50000000000000000000e+03) (376, 1.50000000000000000000e+03) (377, 1.50000000000000000000e+03) (378, 6.20357847213745117188e+00) (379, -1.83697986602783203125e+00) (380, -1.41952758789062500000e+03) (381, -1.50000000000000000000e+03) (382, -1.50000000000000000000e+03) (383, -1.50000000000000000000e+03) (384, -1.50000000000000000000e+03) (385, -1.47745434570312500000e+03) (386, 1.46630236816406250000e+03) (387, 1.50000000000000000000e+03) (388, 1.50000000000000000000e+03) (389, 1.50000000000000000000e+03) (390, 1.21261352539062500000e+02) (391, -1.50000000000000000000e+03) (392, 1.50000000000000000000e+03) (393, -1.50000000000000000000e+03) (394, -1.50000000000000000000e+03) (395, -1.50000000000000000000e+03) (396, -1.50000000000000000000e+03) (397, -6.00434082031250000000e+02) (398, -1.30735888671875000000e+03) (399, -1.26543713378906250000e+03) (400, -1.21126867675781250000e+03) (401, 6.94371643066406250000e+02) (402, 1.50000000000000000000e+03) (403, 1.50000000000000000000e+03) (404, 8.23652099609375000000e+02) (405, -7.84004745483398437500e+01) (406, -1.84708476066589355469e-01) (407, -7.74429397583007812500e+01) (408, -1.40120275878906250000e+03) (409, -1.50000000000000000000e+03) (410, -1.50000000000000000000e+03) (411, -1.50000000000000000000e+03) (412, -4.85785484313964843750e+01) (413, 1.50000000000000000000e+03) (414, 1.50000000000000000000e+03) (415, 1.50000000000000000000e+03) (416, 1.50000000000000000000e+03) (417, 1.50000000000000000000e+03) (418, -1.50000000000000000000e+03) (419, -1.50000000000000000000e+03) (420, 1.50000000000000000000e+03) (421, 1.50000000000000000000e+03) (422, 1.50000000000000000000e+03) (423, 1.06029882812500000000e+03) (424, -9.65800048828125000000e+02) (425, 1.26311718750000000000e+03) (426, -6.98393402099609375000e+01) (427, -1.33627172851562500000e+03) (428, -1.34723059082031250000e+03) (429, -3.55472076416015625000e+02) (430, 1.45411669921875000000e+03) (431, 1.47561853027343750000e+03) (432, -3.14506347656250000000e+02) (433, 4.03375793457031250000e+02) (434, 2.22499141693115234375e+01) (435, -6.30349792480468750000e+02) (436, -1.50000000000000000000e+03) (437, -1.50000000000000000000e+03) (438, -1.50000000000000000000e+03) (439, 1.49802990722656250000e+03) (440, 1.50000000000000000000e+03) (441, 1.50000000000000000000e+03) (442, 1.50000000000000000000e+03) (443, 1.50000000000000000000e+03) (444, 1.50000000000000000000e+03) (445, 1.47783129882812500000e+03) (446, -1.50000000000000000000e+03) (447, -1.50000000000000000000e+03) (448, -1.50000000000000000000e+03) (449, 1.50000000000000000000e+03) (450, 1.50000000000000000000e+03) (451, 1.50000000000000000000e+03) (452, -1.49025537109375000000e+03) (453, 5.08949066162109375000e+02) (454, 5.31160644531250000000e+02) (455, -7.09702697753906250000e+02) (456, -7.53517517089843750000e+02) (457, 1.48384802246093750000e+03) (458, 1.04023730468750000000e+03) (459, 1.08639880371093750000e+03) (460, -1.35749768066406250000e+03) (461, 3.90756666660308837891e-01) (462, 2.21391844749450683594e+00) (463, -1.50000000000000000000e+03) (464, -1.50000000000000000000e+03) (465, -1.50000000000000000000e+03) (466, 3.12617858886718750000e+02) (467, 1.50000000000000000000e+03) (468, 1.50000000000000000000e+03) (469, 1.50000000000000000000e+03) (470, 1.50000000000000000000e+03) (471, 1.50000000000000000000e+03) (472, 1.50000000000000000000e+03) (473, -1.50000000000000000000e+03) (474, -1.50000000000000000000e+03) (475, -1.50000000000000000000e+03) (476, 1.50000000000000000000e+03) (477, 1.50000000000000000000e+03) (478, 1.50000000000000000000e+03) (479, 1.50000000000000000000e+03) (480, 1.50000000000000000000e+03) (481, 1.50000000000000000000e+03) (482, -3.39788024902343750000e+02) (483, -1.47500000000000000000e+03) (484, 1.27470251464843750000e+03) (485, 1.48880273437500000000e+03) (486, -1.16004943847656250000e+03) (487, -1.46776477050781250000e+03) (488, -1.37035681152343750000e+03) (489, -1.49063122558593750000e+03) (490, -8.17167846679687500000e+02) (491, -1.50000000000000000000e+03) (492, -1.50000000000000000000e+03) (493, -9.16494567871093750000e+02) (494, 7.78275375366210937500e+01) (495, 1.50000000000000000000e+03) (496, 1.50000000000000000000e+03) (497, 1.50000000000000000000e+03) (498, 1.50000000000000000000e+03) (499, 1.50000000000000000000e+03) (500, 3.63733581542968750000e+02) (501, -1.50000000000000000000e+03) (502, -1.50000000000000000000e+03) (503, 1.12126135253906250000e+03) (504, -1.50000000000000000000e+03) (505, 1.50000000000000000000e+03) (506, 1.50000000000000000000e+03) (507, 4.90800048828125000000e+02) (508, 1.17727038574218750000e+03) (509, 1.97861419677734375000e+02) (510, 1.97861419677734375000e+02) (511, -2.83435180664062500000e+02) (512, 1.48401818847656250000e+03) (513, 4.15206939697265625000e+02) (514, 5.18871459960937500000e+02) (515, 8.97585327148437500000e+02) (516, 1.52195453643798828125e+01) (517, -9.84538513183593750000e+02) (518, -1.50000000000000000000e+03) (519, -3.05317169189453125000e+02) (520, 1.39477863311767578125e+01) (521, 5.50144910812377929688e+00) (522, 1.50000000000000000000e+03) (523, 1.50000000000000000000e+03) (524, 1.49201916503906250000e+03) (525, 1.49667480468750000000e+03) (526, 1.50000000000000000000e+03) (527, 3.63733581542968750000e+02) (528, -1.50000000000000000000e+03) (529, -1.50000000000000000000e+03) (530, -1.50000000000000000000e+03) (531, -1.50000000000000000000e+03) (532, 1.50000000000000000000e+03) (533, 1.50000000000000000000e+03) (534, 1.50000000000000000000e+03) (535, 5.42051391601562500000e+02) (536, -1.34470117187500000000e+03) (537, 1.29503991699218750000e+03) (538, 1.50000000000000000000e+03) (539, 2.74061431884765625000e+02) (540, 4.63907165527343750000e+02) (541, 1.44692907714843750000e+03) (542, 1.48254675292968750000e+03) (543, 1.47120007324218750000e+03) (544, -7.57972412109375000000e+01) (545, -6.85180114746093750000e+02) (546, 1.03204994201660156250e+02) (547, 4.47540855407714843750e+01) (548, 8.20374603271484375000e+01) (549, 4.50562927246093750000e+02) (550, 1.46911828613281250000e+03) (551, 1.49964331054687500000e+03) (552, 1.19798376464843750000e+03) (553, 6.15574951171875000000e+02) (554, -4.64749572753906250000e+02) (555, -1.50000000000000000000e+03) (556, -1.50000000000000000000e+03) (557, -1.50000000000000000000e+03) (558, -1.50000000000000000000e+03) (559, -1.50000000000000000000e+03) (560, 1.50000000000000000000e+03) (561, 1.50000000000000000000e+03) (562, 1.50000000000000000000e+03) (563, 4.86171875000000000000e+02) (564, -1.50000000000000000000e+03) (565, 9.88430969238281250000e+02) (566, 1.43528784179687500000e+03) (567, 1.45448571777343750000e+03) (568, 1.34901367187500000000e+03) (569, 1.46907812500000000000e+03) (570, 1.49998449707031250000e+03) (571, 1.49452490234375000000e+03) (572, 2.29845214843750000000e+02) (573, 3.81707906723022460938e+00) (574, 3.31035995483398437500e+01) (575, 1.49969616699218750000e+03) (576, 1.49995092773437500000e+03) (577, 1.49650976562500000000e+03) (578, 1.48054455566406250000e+03) (579, 1.41398498535156250000e+03) (580, 1.48365649414062500000e+03) (581, 7.75397583007812500000e+02) (582, -1.50000000000000000000e+03) (583, -1.50000000000000000000e+03) (584, -1.50000000000000000000e+03) (585, -1.50000000000000000000e+03) (586, -1.50000000000000000000e+03) (587, 1.36733215332031250000e+03) (588, 1.50000000000000000000e+03) (589, 1.50000000000000000000e+03) (590, 1.50000000000000000000e+03) (591, 4.86171875000000000000e+02) (592, -1.50000000000000000000e+03) (593, -2.10938659667968750000e+02) (594, 9.83265380859375000000e+02) (595, 1.39076574707031250000e+03) (596, 1.24393859863281250000e+03) (597, 1.38712585449218750000e+03) (598, 1.47950024414062500000e+03) (599, 1.50000000000000000000e+03) (600, 5.65361267089843750000e+02) (601, 1.20710464477539062500e+02) (602, 1.85179580688476562500e+02) (603, 7.50650512695312500000e+02) (604, 1.49970898437500000000e+03) (605, 1.49999926757812500000e+03) (606, 1.49998889160156250000e+03) (607, 1.35375646972656250000e+03) (608, 8.12546997070312500000e+02) (609, 1.30524926757812500000e+03) (610, -1.50000000000000000000e+03) (611, -1.50000000000000000000e+03) (612, -1.50000000000000000000e+03) (613, -1.50000000000000000000e+03) (614, 1.09584069824218750000e+03) (615, -1.50000000000000000000e+03) (616, 1.50000000000000000000e+03) (617, 1.50000000000000000000e+03) (618, 1.50000000000000000000e+03) (619, 7.07774414062500000000e+02) (620, 2.37551757812500000000e+02) (621, -1.10938598632812500000e+02) (622, 3.36605651855468750000e+02) (623, 1.18538610839843750000e+03) (624, 1.45448571777343750000e+03) (625, 1.50000000000000000000e+03) (626, 1.50000000000000000000e+03) (627, 1.50000000000000000000e+03) (628, 1.50000000000000000000e+03) (629, 1.50000000000000000000e+03) (630, 1.50000000000000000000e+03) (631, 1.50000000000000000000e+03) (632, 1.50000000000000000000e+03) (633, 1.49999536132812500000e+03) (634, 1.49439245605468750000e+03) (635, 1.47727331542968750000e+03) (636, 9.32675354003906250000e+02) (637, 3.64092224121093750000e+02) (638, -1.50000000000000000000e+03) (639, -1.50000000000000000000e+03) (640, -1.50000000000000000000e+03) (641, -1.50000000000000000000e+03) (642, 1.50000000000000000000e+03) (643, -1.50000000000000000000e+03) (644, 1.50000000000000000000e+03) (645, 1.50000000000000000000e+03) (646, 1.50000000000000000000e+03) (647, 1.50000000000000000000e+03) (648, 1.50000000000000000000e+03) (649, 1.50000000000000000000e+03) (650, 1.50000000000000000000e+03) (651, 1.50000000000000000000e+03) (652, 1.50000000000000000000e+03) (653, 1.50000000000000000000e+03) (654, 1.50000000000000000000e+03) (655, 1.50000000000000000000e+03) (656, 1.50000000000000000000e+03) (657, 1.50000000000000000000e+03) (658, 1.50000000000000000000e+03) (659, 1.50000000000000000000e+03) (660, 1.50000000000000000000e+03) (661, 1.49861450195312500000e+03) (662, 1.50000000000000000000e+03) (663, 1.15795471191406250000e+03) (664, -9.74062133789062500000e+02) (665, -1.36862255859375000000e+03) (666, -1.50000000000000000000e+03) (667, 4.90800048828125000000e+02) (668, -1.50000000000000000000e+03) (669, 1.50000000000000000000e+03) (670, 1.50000000000000000000e+03) (671, 1.50000000000000000000e+03) (672, 1.50000000000000000000e+03) (673, 1.50000000000000000000e+03) (674, 1.50000000000000000000e+03) (675, 1.50000000000000000000e+03) (676, -1.16580004882812500000e+03) (677, -1.31580004882812500000e+03) (678, -1.06580004882812500000e+03) (679, -1.06580004882812500000e+03) (680, -6.53762634277343750000e+02) (681, 5.63066528320312500000e+02) (682, 1.78061523437500000000e+01) (683, 1.22218078613281250000e+03) (684, 1.49868896484375000000e+03) (685, 1.49958044433593750000e+03) (686, 1.24335864257812500000e+03) (687, 7.35055969238281250000e+02) (688, -1.50000000000000000000e+03) (689, -1.50000000000000000000e+03) (690, -1.50000000000000000000e+03) (691, -1.50000000000000000000e+03) (692, -1.50000000000000000000e+03) (693, -1.50000000000000000000e+03) (694, -1.50000000000000000000e+03) (695, -1.50000000000000000000e+03) (696, 1.50000000000000000000e+03) (697, 1.48200000000000000000e+03) (698, 1.50000000000000000000e+03) (699, 1.50000000000000000000e+03) (700, 1.50000000000000000000e+03) (701, 1.50000000000000000000e+03) (702, -1.11580004882812500000e+03) (703, 6.79748168945312500000e+02) (704, -1.50000000000000000000e+03) (705, -1.50000000000000000000e+03) (706, -1.50000000000000000000e+03) (707, -1.50000000000000000000e+03) (708, -1.50000000000000000000e+03) (709, -1.50000000000000000000e+03) (710, -1.50000000000000000000e+03) (711, -1.50000000000000000000e+03) (712, -1.50000000000000000000e+03) (713, -1.50000000000000000000e+03) (714, -1.50000000000000000000e+03) (715, -1.50000000000000000000e+03) (716, -1.50000000000000000000e+03) (717, -1.50000000000000000000e+03) (718, -1.50000000000000000000e+03) (719, -1.50000000000000000000e+03) (720, -1.50000000000000000000e+03) (721, -1.50000000000000000000e+03) (722, -1.50000000000000000000e+03) (723, -1.50000000000000000000e+03) (724, 1.50000000000000000000e+03) (725, -1.50000000000000000000e+03) (726, 1.50000000000000000000e+03) (727, 1.50000000000000000000e+03) (728, 1.50000000000000000000e+03) (729, 1.50000000000000000000e+03) (730, 1.50000000000000000000e+03) (731, -1.50000000000000000000e+03) (732, -1.50000000000000000000e+03) (733, -1.50000000000000000000e+03) (734, -1.50000000000000000000e+03) (735, -1.50000000000000000000e+03) (736, -1.50000000000000000000e+03) (737, -1.50000000000000000000e+03) (738, -1.50000000000000000000e+03) (739, -1.50000000000000000000e+03) (740, -1.50000000000000000000e+03) (741, -1.50000000000000000000e+03) (742, -1.50000000000000000000e+03) (743, -1.50000000000000000000e+03) (744, -1.50000000000000000000e+03) (745, -1.50000000000000000000e+03) (746, -1.50000000000000000000e+03) (747, -1.50000000000000000000e+03) (748, -1.50000000000000000000e+03) (749, -1.50000000000000000000e+03) (750, -1.50000000000000000000e+03) (751, -1.50000000000000000000e+03) (752, -1.50000000000000000000e+03) (753, -8.65800048828125000000e+02) (754, 1.50000000000000000000e+03) (755, 1.50000000000000000000e+03) (756, 1.50000000000000000000e+03) (757, 1.50000000000000000000e+03) (758, 1.50000000000000000000e+03) (759, 1.50000000000000000000e+03) (760, -1.06580004882812500000e+03) (761, -1.50000000000000000000e+03) (762, -1.50000000000000000000e+03) (763, -1.50000000000000000000e+03) (764, -1.50000000000000000000e+03) (765, -1.50000000000000000000e+03) (766, -1.50000000000000000000e+03) (767, -1.50000000000000000000e+03) (768, -1.50000000000000000000e+03) (769, -1.50000000000000000000e+03) (770, -1.50000000000000000000e+03) (771, -1.50000000000000000000e+03) (772, -1.50000000000000000000e+03) (773, -1.50000000000000000000e+03) (774, -1.50000000000000000000e+03) (775, -1.50000000000000000000e+03) (776, -1.50000000000000000000e+03) (777, -1.50000000000000000000e+03) (778, -1.50000000000000000000e+03) (779, 1.25871997070312500000e+03) (780, 1.50000000000000000000e+03) (781, 1.50000000000000000000e+03) (782, 1.50000000000000000000e+03) (783, 1.50000000000000000000e+03) (784, 4.19870138168334960938e-01) (0, 1.50000000000000000000e+03) (1, 1.50000000000000000000e+03) (2, 1.50000000000000000000e+03) (3, 1.50000000000000000000e+03) (4, 1.50000000000000000000e+03) (5, 1.50000000000000000000e+03) (6, 1.50000000000000000000e+03) (7, 1.50000000000000000000e+03) (8, 1.50000000000000000000e+03) (9, 1.50000000000000000000e+03) (10, 1.50000000000000000000e+03) (11, 1.50000000000000000000e+03) (12, -1.35000000000000000000e+03) (13, -3.59199951171875000000e+02) (14, -5.59199951171875000000e+02) (15, -5.59199951171875000000e+02) (16, 1.50000000000000000000e+03) (17, 1.50000000000000000000e+03) (18, 1.50000000000000000000e+03) (19, 1.50000000000000000000e+03) (20, 1.50000000000000000000e+03) (21, 1.50000000000000000000e+03) (22, 1.50000000000000000000e+03) (23, 1.50000000000000000000e+03) (24, 1.50000000000000000000e+03) (25, 1.50000000000000000000e+03) (26, 1.50000000000000000000e+03) (27, 1.50000000000000000000e+03) (28, 1.50000000000000000000e+03) (29, 1.50000000000000000000e+03) (30, 1.50000000000000000000e+03) (31, 1.50000000000000000000e+03) (32, -1.65625396728515625000e+02) (33, -9.52102539062500000000e+02) (34, 8.34199951171875000000e+02) (35, -8.16000366210937500000e+01) (36, -1.47148803710937500000e+03) (37, -1.44540002441406250000e+03) (38, -1.31580004882812500000e+03) (39, -1.16580004882812500000e+03) (40, -1.01580004882812500000e+03) (41, -7.15800048828125000000e+02) (42, -1.01580004882812500000e+03) (43, -1.42137597656250000000e+03) (44, -1.50000000000000000000e+03) (45, -1.40900000000000000000e+03) (46, -1.58000488281250000000e+01) (47, 7.84199951171875000000e+02) (48, -1.42945556640625000000e+01) (49, -1.44500000000000000000e+03) (50, -1.40900000000000000000e+03) (51, 1.50000000000000000000e+03) (52, 1.50000000000000000000e+03) (53, 1.50000000000000000000e+03) (54, 1.50000000000000000000e+03) (55, 1.50000000000000000000e+03) (56, 1.50000000000000000000e+03) (57, 1.50000000000000000000e+03) (58, -1.50000000000000000000e+03) (59, -3.60797576904296875000e+02) (60, -2.95661346435546875000e+02) (61, -1.50000000000000000000e+03) (62, -1.31580004882812500000e+03) (63, -1.31580004882812500000e+03) (64, -1.50000000000000000000e+03) (65, -1.50000000000000000000e+03) (66, -1.50000000000000000000e+03) (67, -1.44500000000000000000e+03) (68, -1.31580004882812500000e+03) (69, -1.16580004882812500000e+03) (70, -1.01580004882812500000e+03) (71, -1.01580004882812500000e+03) (72, -1.05079345703125000000e+03) (73, -1.30615563964843750000e+03) (74, -8.16000366210937500000e+01) (75, -1.06261352539062500000e+02) (76, 7.68399963378906250000e+02) (77, 1.50000000000000000000e+03) (78, 1.12187768554687500000e+03) (79, 1.50000000000000000000e+03) (80, 9.90800048828125000000e+02) (81, 5.24908386230468750000e+02) (82, 1.50000000000000000000e+03) (83, 1.50000000000000000000e+03) (84, 1.50000000000000000000e+03) (85, 1.50000000000000000000e+03) (86, -1.39100000000000000000e+03) (87, -1.50000000000000000000e+03) (88, -1.50000000000000000000e+03) (89, -1.24337158203125000000e+01) (90, -9.59199951171875000000e+02) (91, -9.59199951171875000000e+02) (92, -9.59199951171875000000e+02) (93, -9.59199951171875000000e+02) (94, -9.59199951171875000000e+02) (95, -2.55961730957031250000e+02) (96, -3.91828186035156250000e+02) (97, -1.12481689453125000000e+02) (98, -7.43399963378906250000e+02) (99, -8.43399963378906250000e+02) (100, -1.50000000000000000000e+03) (101, -1.36016003417968750000e+03) (102, -6.98012878417968750000e+02) (103, 5.83103942871093750000e+01) (104, 2.54613037109375000000e+01) (105, 1.07861267089843750000e+02) (106, 1.25516687011718750000e+03) (107, 1.50000000000000000000e+03) (108, 1.50000000000000000000e+03) (109, 1.43400000000000000000e+03) (110, 1.50000000000000000000e+03) (111, 1.50000000000000000000e+03) (112, 1.50000000000000000000e+03) (113, 1.00919995117187500000e+03) (114, 1.23419995117187500000e+03) (115, 1.50000000000000000000e+03) (116, 8.28738647460937500000e+02) (117, 1.50000000000000000000e+03) (118, 1.50000000000000000000e+03) (119, 1.45247998046875000000e+03) (120, 1.43447998046875000000e+03) (121, 1.29080004882812500000e+03) (122, 1.29080004882812500000e+03) (123, 1.29080004882812500000e+03) (124, 1.29080004882812500000e+03) (125, 1.32126135253906250000e+03) (126, 1.27537182617187500000e+03) (127, 1.27537182617187500000e+03) (128, 1.44229895019531250000e+03) (129, 1.18102331542968750000e+03) (130, -1.10584083557128906250e+02) (131, -8.28215332031250000000e+02) (132, -1.41488000488281250000e+03) (133, -1.50000000000000000000e+03) (134, -1.43000000000000000000e+03) (135, -1.40900000000000000000e+03) (136, -1.31580004882812500000e+03) (137, -1.31580004882812500000e+03) (138, -1.42787060546875000000e+03) (139, 1.50000000000000000000e+03) (140, 1.50000000000000000000e+03) (141, 1.50000000000000000000e+03) (142, 1.50000000000000000000e+03) (143, 1.50000000000000000000e+03) (144, 1.50000000000000000000e+03) (145, 1.50000000000000000000e+03) (146, 1.50000000000000000000e+03) (147, 1.50000000000000000000e+03) (148, 1.50000000000000000000e+03) (149, 1.50000000000000000000e+03) (150, 1.50000000000000000000e+03) (151, 1.50000000000000000000e+03) (152, 1.50000000000000000000e+03) (153, 1.50000000000000000000e+03) (154, 1.48019995117187500000e+03) (155, 1.48019995117187500000e+03) (156, 1.50000000000000000000e+03) (157, 1.50000000000000000000e+03) (158, -1.33597448730468750000e+03) (159, -9.32630065917968750000e+02) (160, -1.50000000000000000000e+03) (161, -1.50000000000000000000e+03) (162, -1.50000000000000000000e+03) (163, -1.50000000000000000000e+03) (164, -1.50000000000000000000e+03) (165, -1.50000000000000000000e+03) (166, -1.50000000000000000000e+03) (167, 1.50000000000000000000e+03) (168, 1.50000000000000000000e+03) (169, 1.18419995117187500000e+03) (170, -1.32274023437500000000e+03) (171, 1.29080004882812500000e+03) (172, 1.50000000000000000000e+03) (173, 1.50000000000000000000e+03) (174, 1.50000000000000000000e+03) (175, 1.50000000000000000000e+03) (176, 1.50000000000000000000e+03) (177, 1.50000000000000000000e+03) (178, 1.50000000000000000000e+03) (179, 1.50000000000000000000e+03) (180, 1.50000000000000000000e+03) (181, 1.50000000000000000000e+03) (182, 1.50000000000000000000e+03) (183, 1.50000000000000000000e+03) (184, 1.50000000000000000000e+03) (185, 1.50000000000000000000e+03) (186, 8.18999206542968750000e+02) (187, 8.12899291992187500000e+02) (188, -1.22643493652343750000e+03) (189, -1.50000000000000000000e+03) (190, -1.50000000000000000000e+03) (191, -1.50000000000000000000e+03) (192, -1.50000000000000000000e+03) (193, -1.50000000000000000000e+03) (194, -1.50000000000000000000e+03) (195, -1.50000000000000000000e+03) (196, -1.50000000000000000000e+03) (197, -1.42364465332031250000e+03) (198, -8.28738647460937500000e+02) (199, 1.07126135253906250000e+03) (200, 1.50000000000000000000e+03) (201, 1.50000000000000000000e+03) (202, 1.50000000000000000000e+03) (203, 1.50000000000000000000e+03) (204, 6.16980224609375000000e+02) (205, 2.13455028533935546875e+01) (206, 3.73686742782592773438e+00) (207, 1.48685622215270996094e+00) (208, -1.46484204101562500000e+03) (209, 1.50000000000000000000e+03) (210, 1.50000000000000000000e+03) (211, 1.50000000000000000000e+03) (212, 1.50000000000000000000e+03) (213, 1.50000000000000000000e+03) (214, -6.26832580566406250000e+02) (215, -3.97114028930664062500e+01) (216, -8.37337097167968750000e+02) (217, -5.84346984863281250000e+02) (218, -1.50000000000000000000e+03) (219, -1.50000000000000000000e+03) (220, -1.50000000000000000000e+03) (221, -1.50000000000000000000e+03) (222, -1.50000000000000000000e+03) (223, -1.50000000000000000000e+03) (224, -1.50000000000000000000e+03) (225, -1.50000000000000000000e+03) (226, -1.50000000000000000000e+03) (227, -1.50000000000000000000e+03) (228, 9.68399963378906250000e+02) (229, 1.50000000000000000000e+03) (230, 9.38473266601562500000e+02) (231, -5.26440063476562500000e+02) (232, 2.30706420898437500000e+02) (233, -1.49027206420898437500e+02) (234, -5.22034530639648437500e+01) (235, -2.40182037353515625000e+01) (236, -4.46194915771484375000e+02) (237, -1.11203955078125000000e+03) (238, 1.06917199707031250000e+03) (239, 1.23161181640625000000e+03) (240, 1.06793273925781250000e+03) (241, 1.15107800292968750000e+03) (242, 7.11400512695312500000e+02) (243, -2.06530822753906250000e+02) (244, -2.16342590332031250000e+02) (245, -1.25655078125000000000e+03) (246, -1.39100000000000000000e+03) (247, -1.50000000000000000000e+03) (248, -1.50000000000000000000e+03) (249, -1.50000000000000000000e+03) (250, -1.50000000000000000000e+03) (251, -1.27270568847656250000e+03) (252, -1.06080004882812500000e+03) (253, -9.40800048828125000000e+02) (254, -1.50000000000000000000e+03) (255, -1.15928161621093750000e+03) (256, 5.34302734375000000000e+02) (257, 2.18904968261718750000e+02) (258, -1.10462023925781250000e+03) (259, -1.13286413574218750000e+03) (260, -8.96061340332031250000e+02) (261, -3.96484619140625000000e+02) (262, -6.98443298339843750000e+02) (263, -3.63126335144042968750e+01) (264, 2.16257095336914062500e+00) (265, -5.71171325683593750000e+02) (266, -1.42910632324218750000e+03) (267, -4.36020843505859375000e+02) (268, -1.33124023437500000000e+03) (269, 7.58844726562500000000e+02) (270, 1.50000000000000000000e+03) (271, 1.50000000000000000000e+03) (272, 1.03886853027343750000e+03) (273, 9.65128906250000000000e+02) (274, 1.50000000000000000000e+03) (275, -1.43000000000000000000e+03) (276, -1.50000000000000000000e+03) (277, -1.50000000000000000000e+03) (278, -1.50000000000000000000e+03) (279, -1.40900000000000000000e+03) (280, -1.02080004882812500000e+03) (281, -8.65800048828125000000e+02) (282, -9.15800048828125000000e+02) (283, -1.50000000000000000000e+03) (284, -1.40500000000000000000e+03) (285, 4.91080810546875000000e+02) (286, -3.16804931640625000000e+02) (287, -1.31631359863281250000e+03) (288, -1.47040136718750000000e+03) (289, 1.29818188476562500000e+03) (290, -7.77133056640625000000e+02) (291, -1.11432519531250000000e+03) (292, -1.41168200683593750000e+03) (293, -1.47662353515625000000e+03) (294, -9.75826965332031250000e+02) (295, 3.91138534545898437500e+01) (296, -2.79262695312500000000e+01) (297, 1.50000000000000000000e+03) (298, 1.50000000000000000000e+03) (299, 1.50000000000000000000e+03) (300, 1.50000000000000000000e+03) (301, 1.50000000000000000000e+03) (302, 1.50000000000000000000e+03) (303, 1.50000000000000000000e+03) (304, -1.36580004882812500000e+03) (305, -1.50000000000000000000e+03) (306, -1.50000000000000000000e+03) (307, -1.47500000000000000000e+03) (308, -2.86600097656250000000e+02) (309, 1.50000000000000000000e+03) (310, -9.95800048828125000000e+02) (311, -9.27599975585937500000e+02) (312, 4.99118408203125000000e+02) (313, 9.10150024414062500000e+02) (314, -1.15379809570312500000e+03) (315, -1.32649060058593750000e+03) (316, 3.82265625000000000000e+01) (317, -1.15214575195312500000e+03) (318, -3.40956481933593750000e+02) (319, -1.44662634277343750000e+03) (320, -1.28399853515625000000e+03) (321, -1.38458398437500000000e+03) (322, -1.55182067871093750000e+02) (323, 8.68399963378906250000e+02) (324, 1.50000000000000000000e+03) (325, 1.50000000000000000000e+03) (326, 1.50000000000000000000e+03) (327, 1.50000000000000000000e+03) (328, 1.50000000000000000000e+03) (329, 1.50000000000000000000e+03) (330, 1.50000000000000000000e+03) (331, 1.50000000000000000000e+03) (332, 9.62788757324218750000e+02) (333, -1.50000000000000000000e+03) (334, -1.50000000000000000000e+03) (335, 8.84199951171875000000e+02) (336, -1.10000000000000000000e+03) (337, 5.07639984130859375000e+02) (338, -9.93399963378906250000e+02) (339, 1.51522338867187500000e+02) (340, 4.98743835449218750000e+02) (341, -9.64563659667968750000e+02) (342, -1.27492199707031250000e+03) (343, -1.21375537109375000000e+03) (344, -4.00984115600585937500e+01) (345, -1.42060510253906250000e+03) (346, -1.49073364257812500000e+03) (347, -1.10626135253906250000e+03) (348, -1.31453796386718750000e+03) (349, -2.41286376953125000000e+02) (350, 3.89414794921875000000e+02) (351, -1.89110107421875000000e+02) (352, 1.50000000000000000000e+03) (353, 1.50000000000000000000e+03) (354, 1.50000000000000000000e+03) (355, 1.50000000000000000000e+03) (356, 1.50000000000000000000e+03) (357, 1.50000000000000000000e+03) (358, 1.50000000000000000000e+03) (359, 1.50000000000000000000e+03) (360, 1.50000000000000000000e+03) (361, -1.50000000000000000000e+03) (362, 7.12613525390625000000e+01) (363, 1.50000000000000000000e+03) (364, -3.02902130126953125000e+02) (365, 3.71371643066406250000e+02) (366, -1.15919995117187500000e+03) (367, 9.57832107543945312500e+01) (368, 4.83368530273437500000e+02) (369, 7.66491699218750000000e+00) (370, -6.04089660644531250000e+02) (371, -4.02956146240234375000e+02) (372, -3.85138168334960937500e+01) (373, -1.46570104980468750000e+03) (374, -1.36989428710937500000e+03) (375, -4.06648773193359375000e+02) (376, -8.03213623046875000000e+02) (377, -1.41220324707031250000e+03) (378, -7.41907653808593750000e+02) (379, -1.39771850585937500000e+03) (380, 1.50000000000000000000e+03) (381, 1.34556665039062500000e+03) (382, -1.19269555664062500000e+03) (383, -7.22318115234375000000e+01) (384, 1.02151116943359375000e+03) (385, 4.85857543945312500000e+02) (386, 1.26307836914062500000e+03) (387, 1.50000000000000000000e+03) (388, 8.16119750976562500000e+02) (389, -9.09199951171875000000e+02) (390, 9.90800048828125000000e+02) (391, 6.90800048828125000000e+02) (392, -1.50000000000000000000e+03) (393, 8.48738647460937500000e+02) (394, -1.50000000000000000000e+03) (395, -9.15800048828125000000e+02) (396, 2.12671066284179687500e+02) (397, 4.87715393066406250000e+02) (398, -6.82526855468750000000e+02) (399, -1.42855749511718750000e+03) (400, -6.33620178222656250000e+02) (401, -6.57052978515625000000e+02) (402, -2.84384307861328125000e+02) (403, -2.78344238281250000000e+02) (404, 1.48574401855468750000e+03) (405, 1.41826562500000000000e+03) (406, 3.07909088134765625000e+02) (407, -1.27523291015625000000e+03) (408, 1.50000000000000000000e+03) (409, 1.50000000000000000000e+03) (410, -2.04808273315429687500e+02) (411, -1.44298364257812500000e+03) (412, 4.65776519775390625000e+02) (413, 1.11164941406250000000e+03) (414, 1.23419995117187500000e+03) (415, 8.60738647460937500000e+02) (416, -9.78088745117187500000e+02) (417, -3.09199951171875000000e+02) (418, 5.71261352539062500000e+02) (419, -5.91999511718750000000e+01) (420, -1.50000000000000000000e+03) (421, 6.57138610839843750000e+02) (422, -7.15800048828125000000e+02) (423, -1.06580004882812500000e+03) (424, 1.50000000000000000000e+03) (425, 1.50000000000000000000e+03) (426, 1.50000000000000000000e+03) (427, 1.50000000000000000000e+03) (428, -1.16916015625000000000e+02) (429, 1.17510424804687500000e+03) (430, 1.46469091796875000000e+03) (431, 1.44503491210937500000e+03) (432, 1.42278503417968750000e+03) (433, 1.24657177734375000000e+03) (434, -1.08847790527343750000e+03) (435, -1.04318273925781250000e+03) (436, 1.29166772460937500000e+03) (437, 1.45900183105468750000e+03) (438, -4.88123588562011718750e+01) (439, 7.69490432739257812500e+01) (440, -2.92578796386718750000e+02) (441, 1.26420544433593750000e+03) (442, 1.23419995117187500000e+03) (443, 7.84199951171875000000e+02) (444, 3.18399963378906250000e+02) (445, 2.40798217773437500000e+02) (446, 4.21261352539062500000e+02) (447, -5.91999511718750000000e+01) (448, 1.50000000000000000000e+03) (449, 8.68399963378906250000e+02) (450, 1.03419995117187500000e+03) (451, -1.16580004882812500000e+03) (452, 1.50000000000000000000e+03) (453, 1.50000000000000000000e+03) (454, 1.50000000000000000000e+03) (455, 1.50000000000000000000e+03) (456, 1.50000000000000000000e+03) (457, 1.48521948242187500000e+03) (458, 1.48019995117187500000e+03) (459, 1.48019995117187500000e+03) (460, 1.45919921875000000000e+03) (461, -9.05359741210937500000e+02) (462, -1.10177453613281250000e+03) (463, -1.44511303710937500000e+03) (464, 6.86207427978515625000e+01) (465, 1.02014331054687500000e+03) (466, -4.00306987762451171875e+00) (467, -1.22225685119628906250e+01) (468, -1.33346948242187500000e+03) (469, 8.12436401367187500000e+02) (470, -1.56730468750000000000e+02) (471, 1.44570056152343750000e+03) (472, 1.50000000000000000000e+03) (473, 9.06931884765625000000e+02) (474, 4.21261352539062500000e+02) (475, -5.09199951171875000000e+02) (476, 1.50000000000000000000e+03) (477, 5.94592468261718750000e+02) (478, 1.13419995117187500000e+03) (479, 1.50000000000000000000e+03) (480, 1.50000000000000000000e+03) (481, 1.50000000000000000000e+03) (482, 1.50000000000000000000e+03) (483, 1.50000000000000000000e+03) (484, 1.50000000000000000000e+03) (485, 1.50000000000000000000e+03) (486, 1.50000000000000000000e+03) (487, 1.50000000000000000000e+03) (488, 1.50000000000000000000e+03) (489, -1.40455212402343750000e+03) (490, 2.83897310495376586914e-01) (491, 1.30268176269531250000e+03) (492, 1.01944989013671875000e+03) (493, 6.50856781005859375000e+01) (494, -3.35567736625671386719e+00) (495, -3.54468414306640625000e+02) (496, 1.03616491699218750000e+03) (497, -3.69037841796875000000e+02) (498, 1.50000000000000000000e+03) (499, 1.50000000000000000000e+03) (500, 1.19080004882812500000e+03) (501, 9.57371948242187500000e+02) (502, 3.21261352539062500000e+02) (503, 5.90800048828125000000e+02) (504, 1.50000000000000000000e+03) (505, 8.53938659667968750000e+02) (506, 1.08419995117187500000e+03) (507, 1.50000000000000000000e+03) (508, 1.50000000000000000000e+03) (509, 1.50000000000000000000e+03) (510, 1.47494409179687500000e+03) (511, 1.50000000000000000000e+03) (512, 1.50000000000000000000e+03) (513, 1.50000000000000000000e+03) (514, 1.50000000000000000000e+03) (515, 1.50000000000000000000e+03) (516, 1.39019616699218750000e+03) (517, -7.53723815917968750000e+02) (518, -4.79826507568359375000e+01) (519, 1.28329309082031250000e+03) (520, 1.34091394042968750000e+03) (521, 1.50000000000000000000e+03) (522, 1.50000000000000000000e+03) (523, 1.50000000000000000000e+03) (524, 1.50000000000000000000e+03) (525, 1.50000000000000000000e+03) (526, 1.50000000000000000000e+03) (527, 1.50000000000000000000e+03) (528, 9.90800048828125000000e+02) (529, 8.90800048828125000000e+02) (530, 7.57774414062500000000e+02) (531, 9.33346191406250000000e+02) (532, -1.50000000000000000000e+03) (533, -7.30944274902343750000e+02) (534, 1.03419995117187500000e+03) (535, 1.50000000000000000000e+03) (536, 1.50000000000000000000e+03) (537, 1.50000000000000000000e+03) (538, 1.38526562500000000000e+03) (539, 1.50000000000000000000e+03) (540, 1.50000000000000000000e+03) (541, 1.50000000000000000000e+03) (542, 1.50000000000000000000e+03) (543, 1.50000000000000000000e+03) (544, -9.12991577148437500000e+02) (545, -9.47676391601562500000e+02) (546, 6.18666259765625000000e+02) (547, 8.96211059570312500000e+02) (548, 1.50000000000000000000e+03) (549, 1.48019995117187500000e+03) (550, 1.48019995117187500000e+03) (551, 1.38647998046875000000e+03) (552, 1.50000000000000000000e+03) (553, 1.50000000000000000000e+03) (554, 1.50000000000000000000e+03) (555, 1.19080004882812500000e+03) (556, 8.90800048828125000000e+02) (557, 7.71261352539062500000e+02) (558, 5.89261352539062500000e+02) (559, 9.90800048828125000000e+02) (560, 1.50000000000000000000e+03) (561, 3.12134460449218750000e+02) (562, 1.08419995117187500000e+03) (563, 1.50000000000000000000e+03) (564, 1.43447998046875000000e+03) (565, 1.50000000000000000000e+03) (566, 1.30626135253906250000e+03) (567, 1.41826562500000000000e+03) (568, 1.50000000000000000000e+03) (569, 1.01353417968750000000e+03) (570, 1.23455490112304687500e+02) (571, -5.24698638916015625000e+00) (572, -5.64008426666259765625e+00) (573, 1.68765413761138916016e+00) (574, -3.47000479698181152344e+00) (575, -4.53899621963500976562e+00) (576, 2.26032972335815429688e+00) (577, 3.92560744285583496094e+00) (578, 8.78074096679687500000e+02) (579, 1.41826562500000000000e+03) (580, 1.50000000000000000000e+03) (581, 1.50000000000000000000e+03) (582, 1.50000000000000000000e+03) (583, 1.07126135253906250000e+03) (584, 7.57774414062500000000e+02) (585, 9.69927246093750000000e+02) (586, 7.89261352539062500000e+02) (587, -1.50000000000000000000e+03) (588, -1.50000000000000000000e+03) (589, 1.50000000000000000000e+03) (590, 1.50000000000000000000e+03) (591, 1.50000000000000000000e+03) (592, 1.43447998046875000000e+03) (593, 1.45247998046875000000e+03) (594, 1.29080004882812500000e+03) (595, 1.41826562500000000000e+03) (596, 1.50000000000000000000e+03) (597, 9.26472961425781250000e+02) (598, 9.91193176269531250000e+02) (599, 1.16554040908813476562e+01) (600, 1.37161743640899658203e+00) (601, 2.70145244598388671875e+01) (602, 4.72806365966796875000e+02) (603, 1.13076286315917968750e+02) (604, 8.28593933105468750000e+02) (605, 4.09750709533691406250e+01) (606, 1.92091400146484375000e+02) (607, 1.50000000000000000000e+03) (608, 1.50000000000000000000e+03) (609, 1.50000000000000000000e+03) (610, 1.14080004882812500000e+03) (611, 3.41374145507812500000e+02) (612, 2.21261352539062500000e+02) (613, 1.58534912109375000000e+02) (614, 9.90800048828125000000e+02) (615, 1.09080004882812500000e+03) (616, -1.50000000000000000000e+03) (617, 1.50000000000000000000e+03) (618, 1.50000000000000000000e+03) (619, 1.50000000000000000000e+03) (620, 1.50000000000000000000e+03) (621, 1.50000000000000000000e+03) (622, 1.50000000000000000000e+03) (623, 1.50000000000000000000e+03) (624, 1.50000000000000000000e+03) (625, 1.50000000000000000000e+03) (626, 1.27822875976562500000e+03) (627, 5.97428222656250000000e+02) (628, 1.50000000000000000000e+03) (629, 1.50000000000000000000e+03) (630, 7.88138610839843750000e+02) (631, 6.56538635253906250000e+02) (632, -1.80887969970703125000e+02) (633, 5.66988342285156250000e+02) (634, 2.82875946044921875000e+02) (635, 8.27376098632812500000e+02) (636, 1.50000000000000000000e+03) (637, 1.50000000000000000000e+03) (638, 3.21261352539062500000e+02) (639, -4.12475585937500000000e+00) (640, 7.32718383789062500000e+02) (641, 1.58534912109375000000e+02) (642, -1.36580004882812500000e+03) (643, 1.09080004882812500000e+03) (644, 1.50000000000000000000e+03) (645, 1.50000000000000000000e+03) (646, 1.50000000000000000000e+03) (647, 1.50000000000000000000e+03) (648, 1.50000000000000000000e+03) (649, 1.50000000000000000000e+03) (650, 1.50000000000000000000e+03) (651, 1.50000000000000000000e+03) (652, 1.05004956054687500000e+03) (653, 8.57268005371093750000e+02) (654, 8.32268005371093750000e+02) (655, 6.18730712890625000000e+02) (656, 5.65184143066406250000e+02) (657, 8.19828186035156250000e+02) (658, 7.88138610839843750000e+02) (659, 6.32092163085937500000e+02) (660, 2.23344177246093750000e+02) (661, 8.26126525878906250000e+02) (662, 1.28164489746093750000e+03) (663, 9.97994995117187500000e+02) (664, -1.13773156738281250000e+03) (665, 1.41996862792968750000e+03) (666, 1.41809387207031250000e+03) (667, 1.43230004882812500000e+03) (668, 1.24080004882812500000e+03) (669, -1.50000000000000000000e+03) (670, -1.50000000000000000000e+03) (671, 1.50000000000000000000e+03) (672, 1.50000000000000000000e+03) (673, 1.50000000000000000000e+03) (674, 1.50000000000000000000e+03) (675, 1.50000000000000000000e+03) (676, 4.50868164062500000000e+02) (677, 5.34199951171875000000e+02) (678, 3.12081542968750000000e+02) (679, 5.84228149414062500000e+02) (680, 1.96094421386718750000e+02) (681, 1.50000000000000000000e+03) (682, 1.41266882324218750000e+03) (683, 9.37322814941406250000e+02) (684, 1.50000000000000000000e+03) (685, 9.38692687988281250000e+02) (686, 5.97925231933593750000e+02) (687, 5.86162475585937500000e+02) (688, 1.48268212890625000000e+03) (689, 1.50000000000000000000e+03) (690, 1.50000000000000000000e+03) (691, 1.50000000000000000000e+03) (692, 1.50000000000000000000e+03) (693, 1.50000000000000000000e+03) (694, 1.50000000000000000000e+03) (695, 1.50000000000000000000e+03) (696, 8.41261352539062500000e+02) (697, 8.90800048828125000000e+02) (698, 9.12868286132812500000e+02) (699, 1.50000000000000000000e+03) (700, 1.50000000000000000000e+03) (701, 1.50000000000000000000e+03) (702, 1.50000000000000000000e+03) (703, -1.50000000000000000000e+03) (704, -1.31580004882812500000e+03) (705, -1.34301818847656250000e+03) (706, -1.39875939941406250000e+03) (707, -1.31580004882812500000e+03) (708, -1.04655517578125000000e+03) (709, 5.73416320800781250000e+02) (710, 1.49909521484375000000e+03) (711, 1.50000000000000000000e+03) (712, 1.50000000000000000000e+03) (713, 1.50000000000000000000e+03) (714, 1.50000000000000000000e+03) (715, 1.50000000000000000000e+03) (716, 1.50000000000000000000e+03) (717, 1.50000000000000000000e+03) (718, 1.50000000000000000000e+03) (719, 1.50000000000000000000e+03) (720, 1.50000000000000000000e+03) (721, 1.50000000000000000000e+03) (722, 1.50000000000000000000e+03) (723, 1.03419995117187500000e+03) (724, -1.01580004882812500000e+03) (725, 1.50000000000000000000e+03) (726, 6.11983032226562500000e+02) (727, 1.50000000000000000000e+03) (728, 1.50000000000000000000e+03) (729, 1.50000000000000000000e+03) (730, 1.50000000000000000000e+03) (731, 1.39080004882812500000e+03) (732, 1.50000000000000000000e+03) (733, -7.84781677246093750000e+02) (734, -8.02104125976562500000e+02) (735, -1.36605114746093750000e+03) (736, -7.99812866210937500000e+02) (737, -4.86167541503906250000e+02) (738, -7.86261352539062500000e+02) (739, -8.39691467285156250000e+02) (740, -8.71170654296875000000e+02) (741, 4.80618774414062500000e+02) (742, 1.50000000000000000000e+03) (743, 8.52885009765625000000e+02) (744, 1.50000000000000000000e+03) (745, 1.50000000000000000000e+03) (746, 1.50000000000000000000e+03) (747, 1.50000000000000000000e+03) (748, 1.50000000000000000000e+03) (749, 1.50000000000000000000e+03) (750, 1.50000000000000000000e+03) (751, 1.50000000000000000000e+03) (752, 1.50000000000000000000e+03) (753, -1.44800000000000000000e+03) (754, 1.50000000000000000000e+03) (755, 1.50000000000000000000e+03) (756, 1.50000000000000000000e+03) (757, 1.50000000000000000000e+03) (758, 1.50000000000000000000e+03) (759, 1.50000000000000000000e+03) (760, -1.50000000000000000000e+03) (761, -1.50000000000000000000e+03) (762, 5.34779846191406250000e+02) (763, 1.50000000000000000000e+03) (764, 1.27500000000000000000e+03) (765, -3.72199951171875000000e+02) (766, -1.24999938964843750000e+02) (767, -2.37049560546875000000e+01) (768, 1.37500000000000000000e+03) (769, 6.84062744140625000000e+02) (770, 1.18008374023437500000e+03) (771, 2.93792297363281250000e+02) (772, -8.04883605957031250000e+02) (773, -1.50000000000000000000e+03) (774, -7.59199951171875000000e+02) (775, -3.60809875488281250000e+02) (776, 1.05235852050781250000e+03) (777, 4.30120697021484375000e+02) (778, -1.50000000000000000000e+03) (779, -1.50000000000000000000e+03) (780, 1.50000000000000000000e+03) (781, 1.50000000000000000000e+03) (782, 1.50000000000000000000e+03) (783, 1.50000000000000000000e+03) (784, -6.53157165527343750000e+02) (0, 1.50000000000000000000e+03) (1, 1.50000000000000000000e+03) (2, 1.50000000000000000000e+03) (3, 1.50000000000000000000e+03) (4, 1.50000000000000000000e+03) (5, 1.50000000000000000000e+03) (6, 1.50000000000000000000e+03) (7, 1.50000000000000000000e+03) (8, 1.50000000000000000000e+03) (9, 1.50000000000000000000e+03) (10, 1.50000000000000000000e+03) (11, 1.50000000000000000000e+03) (12, -1.50000000000000000000e+03) (13, -7.90405273437500000000e+02) (14, 1.50000000000000000000e+03) (15, 1.50000000000000000000e+03) (16, 1.50000000000000000000e+03) (17, 1.50000000000000000000e+03) (18, 1.50000000000000000000e+03) (19, 1.50000000000000000000e+03) (20, 1.50000000000000000000e+03) (21, 1.50000000000000000000e+03) (22, 1.50000000000000000000e+03) (23, 1.50000000000000000000e+03) (24, 1.50000000000000000000e+03) (25, 1.50000000000000000000e+03) (26, 1.50000000000000000000e+03) (27, 1.50000000000000000000e+03) (28, 1.50000000000000000000e+03) (29, 1.50000000000000000000e+03) (30, 1.50000000000000000000e+03) (31, 1.50000000000000000000e+03) (32, -1.50000000000000000000e+03) (33, -1.50000000000000000000e+03) (34, -1.50000000000000000000e+03) (35, -1.50000000000000000000e+03) (36, -1.50000000000000000000e+03) (37, -1.50000000000000000000e+03) (38, -1.50000000000000000000e+03) (39, -1.50000000000000000000e+03) (40, -1.50000000000000000000e+03) (41, -1.50000000000000000000e+03) (42, -1.50000000000000000000e+03) (43, -1.50000000000000000000e+03) (44, -1.50000000000000000000e+03) (45, -1.50000000000000000000e+03) (46, -1.50000000000000000000e+03) (47, -1.50000000000000000000e+03) (48, -1.50000000000000000000e+03) (49, -1.50000000000000000000e+03) (50, -1.50000000000000000000e+03) (51, -1.50000000000000000000e+03) (52, 1.50000000000000000000e+03) (53, 1.50000000000000000000e+03) (54, 1.50000000000000000000e+03) (55, 1.50000000000000000000e+03) (56, 1.50000000000000000000e+03) (57, 1.50000000000000000000e+03) (58, -1.50000000000000000000e+03) (59, -1.50000000000000000000e+03) (60, -1.50000000000000000000e+03) (61, -1.50000000000000000000e+03) (62, -1.50000000000000000000e+03) (63, -1.50000000000000000000e+03) (64, -1.50000000000000000000e+03) (65, -1.50000000000000000000e+03) (66, -1.50000000000000000000e+03) (67, -1.50000000000000000000e+03) (68, -1.50000000000000000000e+03) (69, -1.50000000000000000000e+03) (70, -1.50000000000000000000e+03) (71, -1.50000000000000000000e+03) (72, -1.50000000000000000000e+03) (73, -1.50000000000000000000e+03) (74, -1.50000000000000000000e+03) (75, -1.50000000000000000000e+03) (76, -1.50000000000000000000e+03) (77, -1.50000000000000000000e+03) (78, -1.50000000000000000000e+03) (79, -1.50000000000000000000e+03) (80, -2.41276794433593750000e+02) (81, 2.82894409179687500000e+02) (82, 1.50000000000000000000e+03) (83, 1.50000000000000000000e+03) (84, 1.50000000000000000000e+03) (85, 1.50000000000000000000e+03) (86, -1.31580004882812500000e+03) (87, -1.50000000000000000000e+03) (88, -1.50000000000000000000e+03) (89, 1.68399963378906250000e+02) (90, -9.55461364746093750000e+02) (91, -3.81600036621093750000e+02) (92, -1.01200042724609375000e+02) (93, -6.80005455017089843750e+00) (94, 1.59199951171875000000e+02) (95, 1.98738647460937500000e+02) (96, 3.34199951171875000000e+02) (97, 1.34199951171875000000e+02) (98, -1.80261352539062500000e+02) (99, -7.27061401367187500000e+02) (100, -1.50000000000000000000e+03) (101, -1.50000000000000000000e+03) (102, -1.50000000000000000000e+03) (103, -1.50000000000000000000e+03) (104, -1.50000000000000000000e+03) (105, -1.50000000000000000000e+03) (106, -1.50000000000000000000e+03) (107, -1.50000000000000000000e+03) (108, -1.50000000000000000000e+03) (109, -1.45919995117187500000e+03) (110, -1.50000000000000000000e+03) (111, 1.50000000000000000000e+03) (112, 1.50000000000000000000e+03) (113, -1.00000006103515625000e+03) (114, 1.50000000000000000000e+03) (115, -1.35680004882812500000e+03) (116, -8.17591476440429687500e+01) (117, 5.07815917968750000000e+02) (118, 7.84200012207031250000e+02) (119, 1.50000000000000000000e+03) (120, 1.50000000000000000000e+03) (121, 1.50000000000000000000e+03) (122, 1.50000000000000000000e+03) (123, 1.50000000000000000000e+03) (124, 1.50000000000000000000e+03) (125, 1.50000000000000000000e+03) (126, 1.50000000000000000000e+03) (127, 1.50000000000000000000e+03) (128, 1.50000000000000000000e+03) (129, 1.50000000000000000000e+03) (130, 1.06473852539062500000e+03) (131, 3.90271606445312500000e+02) (132, -1.50000000000000000000e+03) (133, -1.50000000000000000000e+03) (134, -1.50000000000000000000e+03) (135, -1.50000000000000000000e+03) (136, -1.50000000000000000000e+03) (137, -1.50000000000000000000e+03) (138, -1.50000000000000000000e+03) (139, -1.50000000000000000000e+03) (140, 1.50000000000000000000e+03) (141, 1.50000000000000000000e+03) (142, -1.15800048828125000000e+02) (143, 1.50000000000000000000e+03) (144, -5.56261352539062500000e+02) (145, 5.81699523925781250000e+02) (146, 1.03886083984375000000e+03) (147, 1.07893713378906250000e+03) (148, 4.43225585937500000000e+02) (149, 1.50000000000000000000e+03) (150, 1.50000000000000000000e+03) (151, 1.50000000000000000000e+03) (152, 1.50000000000000000000e+03) (153, 2.20673217773437500000e+02) (154, -5.16033142089843750000e+02) (155, 6.87200988769531250000e+02) (156, 1.50000000000000000000e+03) (157, 6.39603820800781250000e+02) (158, -1.49258044433593750000e+03) (159, -1.48900427246093750000e+03) (160, -1.42834338378906250000e+03) (161, -1.50000000000000000000e+03) (162, -1.50000000000000000000e+03) (163, -1.50000000000000000000e+03) (164, -1.50000000000000000000e+03) (165, -1.50000000000000000000e+03) (166, -1.50000000000000000000e+03) (167, -1.50000000000000000000e+03) (168, 1.50000000000000000000e+03) (169, -1.50000000000000000000e+03) (170, -1.50000000000000000000e+03) (171, 1.50000000000000000000e+03) (172, -5.56261352539062500000e+02) (173, -3.15800048828125000000e+02) (174, -3.71261352539062500000e+02) (175, -1.32507812500000000000e+02) (176, 4.30499023437500000000e+02) (177, -5.22863525390625000000e+02) (178, -1.48860729980468750000e+03) (179, -8.21705993652343750000e+02) (180, -6.26362976074218750000e+02) (181, 1.50000000000000000000e+03) (182, 1.50000000000000000000e+03) (183, 1.50000000000000000000e+03) (184, 6.85664184570312500000e+02) (185, 1.01840362548828125000e+02) (186, 7.36473449707031250000e+02) (187, -4.06670475006103515625e+00) (188, -1.44623254394531250000e+03) (189, -1.50000000000000000000e+03) (190, -1.50000000000000000000e+03) (191, -1.50000000000000000000e+03) (192, -1.50000000000000000000e+03) (193, -1.50000000000000000000e+03) (194, -1.50000000000000000000e+03) (195, -1.50000000000000000000e+03) (196, -4.59199951171875000000e+02) (197, -1.50000000000000000000e+03) (198, -1.50000000000000000000e+03) (199, 1.50000000000000000000e+03) (200, -5.56261352539062500000e+02) (201, -1.50000000000000000000e+03) (202, -8.69526245117187500000e+02) (203, -6.07571777343750000000e+02) (204, -4.41496337890625000000e+02) (205, -9.31649047851562500000e+02) (206, -1.20242834472656250000e+03) (207, 6.22648376464843750000e+02) (208, 1.55207214355468750000e+02) (209, 1.50000000000000000000e+03) (210, 1.50000000000000000000e+03) (211, 1.50000000000000000000e+03) (212, 1.50000000000000000000e+03) (213, 1.50000000000000000000e+03) (214, 1.50000000000000000000e+03) (215, 1.50000000000000000000e+03) (216, -4.13703870773315429688e+00) (217, -1.29596337890625000000e+03) (218, -1.50000000000000000000e+03) (219, -1.50000000000000000000e+03) (220, -1.50000000000000000000e+03) (221, -1.50000000000000000000e+03) (222, -1.50000000000000000000e+03) (223, -1.50000000000000000000e+03) (224, -1.50000000000000000000e+03) (225, -1.50000000000000000000e+03) (226, 3.92613525390625000000e+01) (227, 1.50000000000000000000e+03) (228, -1.69707244873046875000e+02) (229, -1.50000000000000000000e+03) (230, -1.50000000000000000000e+03) (231, -1.50000000000000000000e+03) (232, -1.47906140136718750000e+03) (233, -1.50000000000000000000e+03) (234, 9.23842163085937500000e+01) (235, 3.20422332763671875000e+02) (236, 1.49970190429687500000e+03) (237, 1.50000000000000000000e+03) (238, 1.50000000000000000000e+03) (239, 1.50000000000000000000e+03) (240, 1.50000000000000000000e+03) (241, 1.50000000000000000000e+03) (242, 1.50000000000000000000e+03) (243, 1.50000000000000000000e+03) (244, 1.50000000000000000000e+03) (245, -1.91737232208251953125e+01) (246, -1.50000000000000000000e+03) (247, -1.50000000000000000000e+03) (248, -1.50000000000000000000e+03) (249, -1.50000000000000000000e+03) (250, -1.50000000000000000000e+03) (251, -1.50000000000000000000e+03) (252, 1.07500000000000000000e+03) (253, -2.43738647460937500000e+02) (254, -9.19995117187500000000e+00) (255, 1.37517480468750000000e+03) (256, -6.99126892089843750000e+02) (257, -1.50000000000000000000e+03) (258, -1.01671893310546875000e+03) (259, -1.42142687988281250000e+03) (260, -9.94379333496093750000e+02) (261, 1.33268041992187500000e+03) (262, 6.45064697265625000000e+01) (263, 1.16805639648437500000e+03) (264, 1.49166516113281250000e+03) (265, 1.39897851562500000000e+03) (266, 1.26075207519531250000e+03) (267, 1.21758203125000000000e+03) (268, 1.38933374023437500000e+03) (269, 1.50000000000000000000e+03) (270, 1.50000000000000000000e+03) (271, 1.50000000000000000000e+03) (272, 1.50000000000000000000e+03) (273, 1.50000000000000000000e+03) (274, -5.40971801757812500000e+02) (275, -1.50000000000000000000e+03) (276, -1.50000000000000000000e+03) (277, -1.50000000000000000000e+03) (278, -1.50000000000000000000e+03) (279, -1.50000000000000000000e+03) (280, 1.32267016601562500000e+03) (281, -9.19995117187500000000e+00) (282, 4.08000488281250000000e+01) (283, 1.34230847167968750000e+03) (284, -5.52959655761718750000e+02) (285, -1.50000000000000000000e+03) (286, -1.50000000000000000000e+03) (287, -1.55220756530761718750e+01) (288, 2.36611114501953125000e+02) (289, 2.51108503341674804688e+00) (290, 2.20790684223175048828e-01) (291, -1.05088281250000000000e+03) (292, -1.50000000000000000000e+03) (293, 1.19684826660156250000e+03) (294, 3.76682983398437500000e+02) (295, 1.13120397949218750000e+03) (296, 1.50000000000000000000e+03) (297, 1.50000000000000000000e+03) (298, 1.50000000000000000000e+03) (299, 1.50000000000000000000e+03) (300, 1.50000000000000000000e+03) (301, 1.50000000000000000000e+03) (302, 1.50000000000000000000e+03) (303, -3.71261352539062500000e+02) (304, -1.50000000000000000000e+03) (305, -1.50000000000000000000e+03) (306, -1.50000000000000000000e+03) (307, -1.50000000000000000000e+03) (308, -1.36580004882812500000e+03) (309, 1.50000000000000000000e+03) (310, 3.91261352539062500000e+02) (311, 7.78411804199218750000e+02) (312, -1.18835644531250000000e+03) (313, -1.50000000000000000000e+03) (314, -3.21935546875000000000e+02) (315, 5.58250961303710937500e+01) (316, 4.38995313644409179688e+00) (317, -1.83950531482696533203e+00) (318, -1.09979113769531250000e+03) (319, -1.50000000000000000000e+03) (320, -1.50000000000000000000e+03) (321, -1.50000000000000000000e+03) (322, -8.32712402343750000000e+01) (323, 1.39818518066406250000e+03) (324, 1.50000000000000000000e+03) (325, 1.50000000000000000000e+03) (326, 1.50000000000000000000e+03) (327, 1.50000000000000000000e+03) (328, 1.50000000000000000000e+03) (329, 1.50000000000000000000e+03) (330, 1.50000000000000000000e+03) (331, 1.50000000000000000000e+03) (332, -4.51261352539062500000e+02) (333, -1.50000000000000000000e+03) (334, -1.50000000000000000000e+03) (335, -1.50000000000000000000e+03) (336, -1.50000000000000000000e+03) (337, 1.50000000000000000000e+03) (338, 1.50000000000000000000e+03) (339, 1.40830139160156250000e+03) (340, -1.36011825561523437500e+02) (341, -7.53936401367187500000e+02) (342, -1.69157371520996093750e+01) (343, 9.53299641609191894531e-01) (344, -2.72713899612426757812e+00) (345, -1.43633022308349609375e+01) (346, -1.50000000000000000000e+03) (347, -1.50000000000000000000e+03) (348, -1.50000000000000000000e+03) (349, -1.50000000000000000000e+03) (350, 1.05308374023437500000e+03) (351, 1.49636706542968750000e+03) (352, 1.41991381835937500000e+03) (353, 1.50000000000000000000e+03) (354, 1.50000000000000000000e+03) (355, 1.50000000000000000000e+03) (356, 1.50000000000000000000e+03) (357, 1.50000000000000000000e+03) (358, 1.50000000000000000000e+03) (359, 1.50000000000000000000e+03) (360, 7.87386474609375000000e+01) (361, -1.50000000000000000000e+03) (362, -3.15800048828125000000e+02) (363, 1.50000000000000000000e+03) (364, -1.50000000000000000000e+03) (365, 1.50000000000000000000e+03) (366, 1.50000000000000000000e+03) (367, -1.50000000000000000000e+03) (368, 1.48475195312500000000e+03) (369, -4.73726348876953125000e+02) (370, 1.18851842880249023438e+01) (371, -1.13836206054687500000e+03) (372, -2.33696889877319335938e+00) (373, -1.50000000000000000000e+03) (374, -1.50000000000000000000e+03) (375, -1.50000000000000000000e+03) (376, -1.50000000000000000000e+03) (377, -2.54629135131835937500e+02) (378, 1.49917126464843750000e+03) (379, 1.48443432617187500000e+03) (380, -8.91684936523437500000e+02) (381, 1.46347320079803466797e+00) (382, 3.57608985900878906250e+00) (383, 1.39406982421875000000e+03) (384, 1.50000000000000000000e+03) (385, 1.50000000000000000000e+03) (386, 9.94772338867187500000e+01) (387, -6.83971801757812500000e+02) (388, -1.36828845214843750000e+03) (389, -1.50000000000000000000e+03) (390, 1.50000000000000000000e+03) (391, 1.50000000000000000000e+03) (392, -1.50000000000000000000e+03) (393, 1.50000000000000000000e+03) (394, 1.24583532714843750000e+03) (395, -1.50000000000000000000e+03) (396, 7.48127075195312500000e+02) (397, 1.49657543945312500000e+03) (398, 1.47064184570312500000e+03) (399, 1.09632458496093750000e+03) (400, 9.40143737792968750000e+02) (401, -1.78732650756835937500e+02) (402, -1.44017565917968750000e+03) (403, -1.50000000000000000000e+03) (404, -1.00901318359375000000e+03) (405, 1.19371008300781250000e+03) (406, 1.50000000000000000000e+03) (407, 9.48684204101562500000e+02) (408, 1.09129676818847656250e+01) (409, 4.17547912597656250000e+01) (410, 2.40110054016113281250e+01) (411, 3.39474761962890625000e+02) (412, -1.14331835937500000000e+03) (413, -8.90800048828125000000e+02) (414, -1.43328173828125000000e+03) (415, -1.50000000000000000000e+03) (416, -1.50000000000000000000e+03) (417, -1.50000000000000000000e+03) (418, 1.50000000000000000000e+03) (419, 1.50000000000000000000e+03) (420, -1.50000000000000000000e+03) (421, -1.50000000000000000000e+03) (422, -1.50000000000000000000e+03) (423, -1.50000000000000000000e+03) (424, 1.20660009765625000000e+03) (425, 1.46040002441406250000e+03) (426, 1.40285778808593750000e+03) (427, 7.61042846679687500000e+02) (428, 2.17620742797851562500e+02) (429, -1.03556079101562500000e+03) (430, -1.49907836914062500000e+03) (431, 1.49837661743164062500e+02) (432, 1.10877416992187500000e+03) (433, 1.03714916992187500000e+03) (434, 1.07127313613891601562e+01) (435, 1.31959223747253417969e+00) (436, 1.15897338867187500000e+03) (437, 1.19379089355468750000e+03) (438, 4.50562164306640625000e+02) (439, -1.06031054687500000000e+03) (440, -1.40372058105468750000e+03) (441, -1.44063366699218750000e+03) (442, -1.50000000000000000000e+03) (443, -1.50000000000000000000e+03) (444, -1.50000000000000000000e+03) (445, 3.84199951171875000000e+02) (446, 1.50000000000000000000e+03) (447, 1.50000000000000000000e+03) (448, 1.50000000000000000000e+03) (449, -1.50000000000000000000e+03) (450, -1.50000000000000000000e+03) (451, -6.87861328125000000000e+02) (452, 1.50000000000000000000e+03) (453, 1.50000000000000000000e+03) (454, 1.50000000000000000000e+03) (455, 1.17540087890625000000e+03) (456, 1.50000000000000000000e+03) (457, -8.28598999023437500000e+02) (458, -2.75537719726562500000e+02) (459, 1.50000000000000000000e+03) (460, 7.04007507324218750000e+02) (461, 8.24695892333984375000e+01) (462, 1.04363220214843750000e+03) (463, 4.63976318359375000000e+02) (464, 1.50000000000000000000e+03) (465, 1.75257202148437500000e+02) (466, 